#pragma once
#include <cstdarg>
namespace Eloquent {
    namespace ML {
        namespace Port {
            class RandomForest {
                public:
                    /**
                    * Predict class for features vector
                    */
                    int predict(float *x) {
                        uint8_t votes[2] = { 0 };
                        // tree #1
                        if (x[170] <= 106.11999893188477) {
                            if (x[237] <= -33.01499938964844) {
                                if (x[151] <= -159.88500213623047) {
                                    if (x[51] <= -9.735000133514404) {
                                        if (x[343] <= -143.76000213623047) {
                                            if (x[8] <= -69.53999900817871) {
                                                if (x[196] <= -272.5449981689453) {
                                                    votes[1] += 1;
                                                }

                                                else {
                                                    votes[0] += 1;
                                                }
                                            }

                                            else {
                                                votes[1] += 1;
                                            }
                                        }

                                        else {
                                            votes[0] += 1;
                                        }
                                    }

                                    else {
                                        votes[0] += 1;
                                    }
                                }

                                else {
                                    votes[0] += 1;
                                }
                            }

                            else {
                                if (x[138] <= -69.83000183105469) {
                                    votes[1] += 1;
                                }

                                else {
                                    if (x[243] <= 32.359999656677246) {
                                        if (x[226] <= -297.8450012207031) {
                                            if (x[74] <= -159.73500061035156) {
                                                votes[0] += 1;
                                            }

                                            else {
                                                if (x[133] <= -297.89500427246094) {
                                                    votes[1] += 1;
                                                }

                                                else {
                                                    votes[0] += 1;
                                                }
                                            }
                                        }

                                        else {
                                            votes[0] += 1;
                                        }
                                    }

                                    else {
                                        votes[0] += 1;
                                    }
                                }
                            }
                        }

                        else {
                            if (x[2] <= 130.0) {
                                if (x[188] <= 144.11000061035156) {
                                    if (x[70] <= -590.5899963378906) {
                                        votes[1] += 1;
                                    }

                                    else {
                                        if (x[152] <= 137.39500427246094) {
                                            votes[0] += 1;
                                        }

                                        else {
                                            votes[1] += 1;
                                        }
                                    }
                                }

                                else {
                                    votes[0] += 1;
                                }
                            }

                            else {
                                if (x[257] <= 104.50499725341797) {
                                    votes[0] += 1;
                                }

                                else {
                                    votes[1] += 1;
                                }
                            }
                        }

                        // tree #2
                        if (x[173] <= 87.80999755859375) {
                            if (x[192] <= -108.10499954223633) {
                                if (x[145] <= -199.75) {
                                    if (x[46] <= -191.46500396728516) {
                                        votes[1] += 1;
                                    }

                                    else {
                                        votes[0] += 1;
                                    }
                                }

                                else {
                                    votes[0] += 1;
                                }
                            }

                            else {
                                if (x[192] <= 13.375) {
                                    if (x[184] <= -184.15499877929688) {
                                        if (x[61] <= -297.7149963378906) {
                                            if (x[26] <= -163.25) {
                                                votes[0] += 1;
                                            }

                                            else {
                                                votes[1] += 1;
                                            }
                                        }

                                        else {
                                            if (x[219] <= -51.85499954223633) {
                                                if (x[333] <= -59.04999923706055) {
                                                    if (x[69] <= -58.654998779296875) {
                                                        votes[1] += 1;
                                                    }

                                                    else {
                                                        votes[0] += 1;
                                                    }
                                                }

                                                else {
                                                    votes[1] += 1;
                                                }
                                            }

                                            else {
                                                if (x[90] <= -70.71500015258789) {
                                                    votes[1] += 1;
                                                }

                                                else {
                                                    votes[0] += 1;
                                                }
                                            }
                                        }
                                    }

                                    else {
                                        if (x[105] <= -102.10499954223633) {
                                            votes[1] += 1;
                                        }

                                        else {
                                            votes[0] += 1;
                                        }
                                    }
                                }

                                else {
                                    if (x[72] <= 0.13499999046325684) {
                                        if (x[262] <= -335.73500061035156) {
                                            votes[1] += 1;
                                        }

                                        else {
                                            votes[0] += 1;
                                        }
                                    }

                                    else {
                                        votes[0] += 1;
                                    }
                                }
                            }
                        }

                        else {
                            if (x[329] <= 63.34000015258789) {
                                if (x[225] <= 434.75498962402344) {
                                    votes[0] += 1;
                                }

                                else {
                                    votes[1] += 1;
                                }
                            }

                            else {
                                if (x[41] <= 73.45499801635742) {
                                    votes[0] += 1;
                                }

                                else {
                                    if (x[199] <= -539.2949829101562) {
                                        votes[1] += 1;
                                    }

                                    else {
                                        if (x[21] <= 104.07999801635742) {
                                            if (x[273] <= 93.28499984741211) {
                                                votes[1] += 1;
                                            }

                                            else {
                                                if (x[263] <= 168.5) {
                                                    votes[0] += 1;
                                                }

                                                else {
                                                    votes[1] += 1;
                                                }
                                            }
                                        }

                                        else {
                                            votes[0] += 1;
                                        }
                                    }
                                }
                            }
                        }

                        // tree #3
                        if (x[170] <= 92.07999801635742) {
                            if (x[81] <= -13.235000133514404) {
                                if (x[16] <= -191.4749984741211) {
                                    if (x[254] <= -28.389999389648438) {
                                        if (x[235] <= -245.78499603271484) {
                                            if (x[147] <= 8.699999809265137) {
                                                if (x[115] <= -261.56500244140625) {
                                                    votes[1] += 1;
                                                }

                                                else {
                                                    votes[0] += 1;
                                                }
                                            }

                                            else {
                                                votes[0] += 1;
                                            }
                                        }

                                        else {
                                            votes[0] += 1;
                                        }
                                    }

                                    else {
                                        votes[1] += 1;
                                    }
                                }

                                else {
                                    if (x[209] <= 88.71500015258789) {
                                        if (x[28] <= -182.63500213623047) {
                                            if (x[330] <= -14.144999504089355) {
                                                votes[1] += 1;
                                            }

                                            else {
                                                votes[0] += 1;
                                            }
                                        }

                                        else {
                                            if (x[83] <= 84.8900032043457) {
                                                votes[0] += 1;
                                            }

                                            else {
                                                if (x[238] <= -160.12999725341797) {
                                                    votes[1] += 1;
                                                }

                                                else {
                                                    votes[0] += 1;
                                                }
                                            }
                                        }
                                    }

                                    else {
                                        votes[1] += 1;
                                    }
                                }
                            }

                            else {
                                if (x[117] <= 11.119999885559082) {
                                    if (x[97] <= -362.17498779296875) {
                                        votes[1] += 1;
                                    }

                                    else {
                                        if (x[225] <= -56.22999954223633) {
                                            votes[1] += 1;
                                        }

                                        else {
                                            if (x[351] <= 46.96500015258789) {
                                                votes[0] += 1;
                                            }

                                            else {
                                                if (x[167] <= -84.27499771118164) {
                                                    votes[0] += 1;
                                                }

                                                else {
                                                    votes[1] += 1;
                                                }
                                            }
                                        }
                                    }
                                }

                                else {
                                    votes[0] += 1;
                                }
                            }
                        }

                        else {
                            if (x[197] <= 176.125) {
                                if (x[271] <= -594.9049987792969) {
                                    votes[1] += 1;
                                }

                                else {
                                    if (x[84] <= 83.70999908447266) {
                                        if (x[173] <= 93.3650016784668) {
                                            votes[0] += 1;
                                        }

                                        else {
                                            votes[1] += 1;
                                        }
                                    }

                                    else {
                                        if (x[104] <= 168.15999603271484) {
                                            votes[0] += 1;
                                        }

                                        else {
                                            votes[1] += 1;
                                        }
                                    }
                                }
                            }

                            else {
                                if (x[107] <= 165.18499755859375) {
                                    votes[0] += 1;
                                }

                                else {
                                    votes[1] += 1;
                                }
                            }
                        }

                        // tree #4
                        if (x[68] <= 83.97999954223633) {
                            if (x[228] <= -31.47499942779541) {
                                if (x[4] <= -177.625) {
                                    if (x[160] <= -199.65499877929688) {
                                        votes[1] += 1;
                                    }

                                    else {
                                        if (x[334] <= -162.75) {
                                            votes[1] += 1;
                                        }

                                        else {
                                            votes[0] += 1;
                                        }
                                    }
                                }

                                else {
                                    votes[0] += 1;
                                }
                            }

                            else {
                                if (x[323] <= -81.28499984741211) {
                                    if (x[40] <= -303.65000915527344) {
                                        if (x[302] <= -159.36499786376953) {
                                            votes[0] += 1;
                                        }

                                        else {
                                            if (x[53] <= -56.08000183105469) {
                                                votes[1] += 1;
                                            }

                                            else {
                                                votes[0] += 1;
                                            }
                                        }
                                    }

                                    else {
                                        if (x[93] <= -69.65500068664551) {
                                            votes[1] += 1;
                                        }

                                        else {
                                            votes[0] += 1;
                                        }
                                    }
                                }

                                else {
                                    votes[0] += 1;
                                }
                            }
                        }

                        else {
                            if (x[317] <= 72.45000076293945) {
                                votes[0] += 1;
                            }

                            else {
                                if (x[11] <= 69.83499908447266) {
                                    votes[0] += 1;
                                }

                                else {
                                    if (x[149] <= 140.9550018310547) {
                                        if (x[14] <= 146.95499420166016) {
                                            votes[1] += 1;
                                        }

                                        else {
                                            votes[0] += 1;
                                        }
                                    }

                                    else {
                                        if (x[2] <= 129.86499786376953) {
                                            votes[0] += 1;
                                        }

                                        else {
                                            if (x[262] <= -246.54000091552734) {
                                                votes[1] += 1;
                                            }

                                            else {
                                                votes[0] += 1;
                                            }
                                        }
                                    }
                                }
                            }
                        }

                        // tree #5
                        if (x[254] <= 94.20499801635742) {
                            if (x[63] <= -100.39500045776367) {
                                if (x[292] <= -143.81999969482422) {
                                    votes[1] += 1;
                                }

                                else {
                                    votes[0] += 1;
                                }
                            }

                            else {
                                if (x[165] <= 10.289999961853027) {
                                    if (x[244] <= -264.50999450683594) {
                                        if (x[102] <= -9.949999809265137) {
                                            votes[1] += 1;
                                        }

                                        else {
                                            if (x[19] <= -305.8349914550781) {
                                                votes[1] += 1;
                                            }

                                            else {
                                                votes[0] += 1;
                                            }
                                        }
                                    }

                                    else {
                                        if (x[295] <= -262.75) {
                                            votes[1] += 1;
                                        }

                                        else {
                                            if (x[34] <= -187.3000030517578) {
                                                if (x[296] <= -19.324999570846558) {
                                                    votes[0] += 1;
                                                }

                                                else {
                                                    votes[1] += 1;
                                                }
                                            }

                                            else {
                                                votes[0] += 1;
                                            }
                                        }
                                    }
                                }

                                else {
                                    if (x[24] <= -14.065000057220459) {
                                        if (x[55] <= -248.6999969482422) {
                                            votes[1] += 1;
                                        }

                                        else {
                                            votes[0] += 1;
                                        }
                                    }

                                    else {
                                        votes[0] += 1;
                                    }
                                }
                            }
                        }

                        else {
                            if (x[185] <= 94.04000091552734) {
                                votes[0] += 1;
                            }

                            else {
                                if (x[38] <= 82.4900016784668) {
                                    votes[0] += 1;
                                }

                                else {
                                    if (x[2] <= 90.05500030517578) {
                                        if (x[80] <= 120.25500106811523) {
                                            votes[1] += 1;
                                        }

                                        else {
                                            votes[0] += 1;
                                        }
                                    }

                                    else {
                                        if (x[3] <= 500.8349914550781) {
                                            if (x[341] <= 85.13999938964844) {
                                                if (x[278] <= 116.03499984741211) {
                                                    votes[1] += 1;
                                                }

                                                else {
                                                    votes[0] += 1;
                                                }
                                            }

                                            else {
                                                votes[1] += 1;
                                            }
                                        }

                                        else {
                                            if (x[257] <= 139.28500366210938) {
                                                votes[1] += 1;
                                            }

                                            else {
                                                votes[0] += 1;
                                            }
                                        }
                                    }
                                }
                            }
                        }

                        // tree #6
                        if (x[170] <= 105.70499801635742) {
                            if (x[60] <= -98.6349983215332) {
                                if (x[250] <= -153.3949966430664) {
                                    votes[1] += 1;
                                }

                                else {
                                    votes[0] += 1;
                                }
                            }

                            else {
                                if (x[237] <= -32.795000076293945) {
                                    if (x[97] <= -260.1050109863281) {
                                        votes[1] += 1;
                                    }

                                    else {
                                        if (x[227] <= 93.88000106811523) {
                                            if (x[291] <= -58.97500038146973) {
                                                if (x[278] <= 86.0250015258789) {
                                                    votes[0] += 1;
                                                }

                                                else {
                                                    if (x[57] <= -60.56500244140625) {
                                                        votes[0] += 1;
                                                    }

                                                    else {
                                                        votes[1] += 1;
                                                    }
                                                }
                                            }

                                            else {
                                                if (x[256] <= -173.95999908447266) {
                                                    votes[1] += 1;
                                                }

                                                else {
                                                    votes[0] += 1;
                                                }
                                            }
                                        }

                                        else {
                                            votes[1] += 1;
                                        }
                                    }
                                }

                                else {
                                    if (x[318] <= -56.170000076293945) {
                                        votes[1] += 1;
                                    }

                                    else {
                                        if (x[9] <= 604.6699829101562) {
                                            if (x[151] <= -301.3450012207031) {
                                                if (x[93] <= 14.315000057220459) {
                                                    votes[1] += 1;
                                                }

                                                else {
                                                    if (x[160] <= -311.63499450683594) {
                                                        if (x[122] <= 108.16500091552734) {
                                                            votes[0] += 1;
                                                        }

                                                        else {
                                                            votes[1] += 1;
                                                        }
                                                    }

                                                    else {
                                                        if (x[145] <= -302.375) {
                                                            votes[1] += 1;
                                                        }

                                                        else {
                                                            votes[0] += 1;
                                                        }
                                                    }
                                                }
                                            }

                                            else {
                                                votes[0] += 1;
                                            }
                                        }

                                        else {
                                            votes[1] += 1;
                                        }
                                    }
                                }
                            }
                        }

                        else {
                            if (x[202] <= -586.4950256347656) {
                                if (x[13] <= -641.8099975585938) {
                                    votes[0] += 1;
                                }

                                else {
                                    votes[1] += 1;
                                }
                            }

                            else {
                                if (x[5] <= 133.87000274658203) {
                                    if (x[129] <= 26.18000030517578) {
                                        votes[1] += 1;
                                    }

                                    else {
                                        votes[0] += 1;
                                    }
                                }

                                else {
                                    if (x[278] <= 97.12999725341797) {
                                        votes[0] += 1;
                                    }

                                    else {
                                        votes[1] += 1;
                                    }
                                }
                            }
                        }

                        // tree #7
                        if (x[245] <= 106.90499877929688) {
                            if (x[258] <= 25.9399995803833) {
                                if (x[337] <= -161.02999877929688) {
                                    if (x[54] <= 45.39500045776367) {
                                        if (x[52] <= -154.29000091552734) {
                                            if (x[12] <= -7.7200000286102295) {
                                                if (x[318] <= -155.87999725341797) {
                                                    votes[0] += 1;
                                                }

                                                else {
                                                    if (x[298] <= -188.64999389648438) {
                                                        votes[1] += 1;
                                                    }

                                                    else {
                                                        if (x[19] <= -211.1550064086914) {
                                                            votes[0] += 1;
                                                        }

                                                        else {
                                                            votes[1] += 1;
                                                        }
                                                    }
                                                }
                                            }

                                            else {
                                                if (x[94] <= -303.7099914550781) {
                                                    votes[1] += 1;
                                                }

                                                else {
                                                    if (x[14] <= -122.74500274658203) {
                                                        if (x[67] <= -293.9100036621094) {
                                                            votes[0] += 1;
                                                        }

                                                        else {
                                                            votes[1] += 1;
                                                        }
                                                    }

                                                    else {
                                                        votes[0] += 1;
                                                    }
                                                }
                                            }
                                        }

                                        else {
                                            votes[0] += 1;
                                        }
                                    }

                                    else {
                                        votes[0] += 1;
                                    }
                                }

                                else {
                                    if (x[236] <= 95.21000289916992) {
                                        if (x[48] <= -99.45500183105469) {
                                            if (x[179] <= 35.15999794006348) {
                                                votes[0] += 1;
                                            }

                                            else {
                                                votes[1] += 1;
                                            }
                                        }

                                        else {
                                            votes[0] += 1;
                                        }
                                    }

                                    else {
                                        votes[1] += 1;
                                    }
                                }
                            }

                            else {
                                if (x[234] <= 615.6499938964844) {
                                    if (x[353] <= 113.26000213623047) {
                                        votes[0] += 1;
                                    }

                                    else {
                                        if (x[199] <= -630.8949890136719) {
                                            votes[1] += 1;
                                        }

                                        else {
                                            votes[0] += 1;
                                        }
                                    }
                                }

                                else {
                                    votes[1] += 1;
                                }
                            }
                        }

                        else {
                            if (x[61] <= -577.3999938964844) {
                                if (x[218] <= 107.88000106811523) {
                                    if (x[242] <= 107.83000183105469) {
                                        votes[1] += 1;
                                    }

                                    else {
                                        votes[0] += 1;
                                    }
                                }

                                else {
                                    votes[1] += 1;
                                }
                            }

                            else {
                                if (x[44] <= 152.51499938964844) {
                                    if (x[3] <= 93.44999694824219) {
                                        if (x[222] <= 25.59500026702881) {
                                            votes[0] += 1;
                                        }

                                        else {
                                            votes[1] += 1;
                                        }
                                    }

                                    else {
                                        votes[0] += 1;
                                    }
                                }

                                else {
                                    if (x[326] <= 97.06999969482422) {
                                        votes[0] += 1;
                                    }

                                    else {
                                        votes[1] += 1;
                                    }
                                }
                            }
                        }

                        // tree #8
                        if (x[293] <= 85.4900016784668) {
                            if (x[147] <= -33.67499923706055) {
                                if (x[253] <= -206.4199981689453) {
                                    if (x[57] <= -13.580000042915344) {
                                        votes[1] += 1;
                                    }

                                    else {
                                        votes[0] += 1;
                                    }
                                }

                                else {
                                    if (x[112] <= -208.8300018310547) {
                                        votes[1] += 1;
                                    }

                                    else {
                                        if (x[48] <= -17.205000400543213) {
                                            if (x[76] <= -182.40999603271484) {
                                                if (x[272] <= 6.25) {
                                                    votes[0] += 1;
                                                }

                                                else {
                                                    votes[1] += 1;
                                                }
                                            }

                                            else {
                                                votes[0] += 1;
                                            }
                                        }

                                        else {
                                            votes[1] += 1;
                                        }
                                    }
                                }
                            }

                            else {
                                if (x[219] <= -19.49000072479248) {
                                    if (x[296] <= -121.29000091552734) {
                                        if (x[59] <= -161.15999603271484) {
                                            votes[0] += 1;
                                        }

                                        else {
                                            votes[1] += 1;
                                        }
                                    }

                                    else {
                                        votes[0] += 1;
                                    }
                                }

                                else {
                                    if (x[27] <= 609.5950012207031) {
                                        if (x[288] <= 11.054999828338623) {
                                            if (x[58] <= -299.39500427246094) {
                                                if (x[102] <= 17.729999542236328) {
                                                    votes[0] += 1;
                                                }

                                                else {
                                                    votes[1] += 1;
                                                }
                                            }

                                            else {
                                                votes[0] += 1;
                                            }
                                        }

                                        else {
                                            votes[0] += 1;
                                        }
                                    }

                                    else {
                                        votes[1] += 1;
                                    }
                                }
                            }
                        }

                        else {
                            if (x[131] <= 74.52000045776367) {
                                votes[0] += 1;
                            }

                            else {
                                if (x[71] <= 81.2599983215332) {
                                    votes[0] += 1;
                                }

                                else {
                                    if (x[276] <= 299.2050018310547) {
                                        if (x[359] <= 211.6050033569336) {
                                            if (x[2] <= 84.33499908447266) {
                                                if (x[316] <= -455.0600128173828) {
                                                    votes[1] += 1;
                                                }

                                                else {
                                                    votes[0] += 1;
                                                }
                                            }

                                            else {
                                                if (x[35] <= 199.03499603271484) {
                                                    votes[1] += 1;
                                                }

                                                else {
                                                    if (x[340] <= -227.68499755859375) {
                                                        votes[1] += 1;
                                                    }

                                                    else {
                                                        votes[0] += 1;
                                                    }
                                                }
                                            }
                                        }

                                        else {
                                            if (x[142] <= -310.4250030517578) {
                                                votes[1] += 1;
                                            }

                                            else {
                                                votes[0] += 1;
                                            }
                                        }
                                    }

                                    else {
                                        if (x[35] <= 154.3800048828125) {
                                            if (x[264] <= 579.4599914550781) {
                                                votes[0] += 1;
                                            }

                                            else {
                                                votes[1] += 1;
                                            }
                                        }

                                        else {
                                            votes[1] += 1;
                                        }
                                    }
                                }
                            }
                        }

                        // tree #9
                        if (x[92] <= 101.93000030517578) {
                            if (x[346] <= -151.56999969482422) {
                                if (x[186] <= 9.085000038146973) {
                                    if (x[19] <= -181.01499938964844) {
                                        if (x[356] <= -40.650001525878906) {
                                            if (x[220] <= -265.68499755859375) {
                                                if (x[15] <= 52.34000015258789) {
                                                    votes[1] += 1;
                                                }

                                                else {
                                                    if (x[240] <= -2.869999885559082) {
                                                        votes[0] += 1;
                                                    }

                                                    else {
                                                        votes[1] += 1;
                                                    }
                                                }
                                            }

                                            else {
                                                votes[0] += 1;
                                            }
                                        }

                                        else {
                                            votes[1] += 1;
                                        }
                                    }

                                    else {
                                        if (x[137] <= 83.27000045776367) {
                                            votes[0] += 1;
                                        }

                                        else {
                                            if (x[49] <= -160.81499481201172) {
                                                votes[0] += 1;
                                            }

                                            else {
                                                votes[1] += 1;
                                            }
                                        }
                                    }
                                }

                                else {
                                    if (x[93] <= 632.739990234375) {
                                        votes[0] += 1;
                                    }

                                    else {
                                        votes[1] += 1;
                                    }
                                }
                            }

                            else {
                                votes[0] += 1;
                            }
                        }

                        else {
                            if (x[359] <= 82.67000198364258) {
                                if (x[324] <= 62.81999969482422) {
                                    votes[1] += 1;
                                }

                                else {
                                    if (x[127] <= -586.9649963378906) {
                                        votes[1] += 1;
                                    }

                                    else {
                                        votes[0] += 1;
                                    }
                                }
                            }

                            else {
                                if (x[2] <= 91.7599983215332) {
                                    votes[0] += 1;
                                }

                                else {
                                    if (x[5] <= 116.10499954223633) {
                                        if (x[290] <= 125.96500015258789) {
                                            votes[1] += 1;
                                        }

                                        else {
                                            votes[0] += 1;
                                        }
                                    }

                                    else {
                                        votes[1] += 1;
                                    }
                                }
                            }
                        }

                        // tree #10
                        if (x[191] <= 87.63999938964844) {
                            if (x[189] <= -31.019999504089355) {
                                if (x[79] <= -200.1050033569336) {
                                    if (x[9] <= -6.0099999606609344) {
                                        if (x[301] <= -183.83999633789062) {
                                            votes[1] += 1;
                                        }

                                        else {
                                            votes[0] += 1;
                                        }
                                    }

                                    else {
                                        if (x[74] <= -94.70999908447266) {
                                            votes[1] += 1;
                                        }

                                        else {
                                            votes[0] += 1;
                                        }
                                    }
                                }

                                else {
                                    if (x[16] <= -180.31500244140625) {
                                        if (x[290] <= -18.040000438690186) {
                                            votes[0] += 1;
                                        }

                                        else {
                                            votes[1] += 1;
                                        }
                                    }

                                    else {
                                        votes[0] += 1;
                                    }
                                }
                            }

                            else {
                                if (x[261] <= -61.84000015258789) {
                                    votes[1] += 1;
                                }

                                else {
                                    if (x[38] <= -82.32500076293945) {
                                        if (x[222] <= 10.179999828338623) {
                                            if (x[166] <= -301.63999938964844) {
                                                votes[1] += 1;
                                            }

                                            else {
                                                votes[0] += 1;
                                            }
                                        }

                                        else {
                                            if (x[0] <= -22.84999942779541) {
                                                votes[1] += 1;
                                            }

                                            else {
                                                votes[0] += 1;
                                            }
                                        }
                                    }

                                    else {
                                        votes[0] += 1;
                                    }
                                }
                            }
                        }

                        else {
                            if (x[35] <= 79.28999710083008) {
                                votes[0] += 1;
                            }

                            else {
                                if (x[308] <= 67.96000099182129) {
                                    votes[0] += 1;
                                }

                                else {
                                    if (x[306] <= 302.260009765625) {
                                        if (x[14] <= 96.79999923706055) {
                                            if (x[195] <= -2.44000244140625) {
                                                votes[1] += 1;
                                            }

                                            else {
                                                votes[0] += 1;
                                            }
                                        }

                                        else {
                                            votes[1] += 1;
                                        }
                                    }

                                    else {
                                        if (x[27] <= 364.30999755859375) {
                                            votes[0] += 1;
                                        }

                                        else {
                                            if (x[189] <= 501.9550018310547) {
                                                votes[1] += 1;
                                            }

                                            else {
                                                if (x[158] <= 136.29500198364258) {
                                                    votes[1] += 1;
                                                }

                                                else {
                                                    votes[0] += 1;
                                                }
                                            }
                                        }
                                    }
                                }
                            }
                        }

                        // tree #11
                        if (x[51] <= -100.2349967956543) {
                            votes[1] += 1;
                        }

                        else {
                            if (x[125] <= 90.1500015258789) {
                                if (x[108] <= 16.815000534057617) {
                                    if (x[316] <= -182.1750030517578) {
                                        if (x[19] <= -182.84500122070312) {
                                            if (x[48] <= -3.169999986886978) {
                                                if (x[291] <= -68.18500137329102) {
                                                    if (x[66] <= -61.95500183105469) {
                                                        votes[1] += 1;
                                                    }

                                                    else {
                                                        votes[0] += 1;
                                                    }
                                                }

                                                else {
                                                    votes[1] += 1;
                                                }
                                            }

                                            else {
                                                if (x[186] <= -11.450000047683716) {
                                                    votes[0] += 1;
                                                }

                                                else {
                                                    if (x[189] <= 12.450000286102295) {
                                                        votes[1] += 1;
                                                    }

                                                    else {
                                                        votes[0] += 1;
                                                    }
                                                }
                                            }
                                        }

                                        else {
                                            votes[0] += 1;
                                        }
                                    }

                                    else {
                                        if (x[335] <= 92.38999938964844) {
                                            if (x[281] <= 85.875) {
                                                votes[0] += 1;
                                            }

                                            else {
                                                if (x[286] <= -161.25499725341797) {
                                                    votes[1] += 1;
                                                }

                                                else {
                                                    votes[0] += 1;
                                                }
                                            }
                                        }

                                        else {
                                            votes[1] += 1;
                                        }
                                    }
                                }

                                else {
                                    votes[0] += 1;
                                }
                            }

                            else {
                                if (x[338] <= 73.13000106811523) {
                                    votes[0] += 1;
                                }

                                else {
                                    if (x[41] <= 84.56999969482422) {
                                        votes[0] += 1;
                                    }

                                    else {
                                        if (x[297] <= 487.5899963378906) {
                                            if (x[20] <= 128.34500122070312) {
                                                if (x[248] <= 131.2249984741211) {
                                                    votes[1] += 1;
                                                }

                                                else {
                                                    votes[0] += 1;
                                                }
                                            }

                                            else {
                                                votes[1] += 1;
                                            }
                                        }

                                        else {
                                            if (x[180] <= 511.00999450683594) {
                                                votes[0] += 1;
                                            }

                                            else {
                                                votes[1] += 1;
                                            }
                                        }
                                    }
                                }
                            }
                        }

                        // tree #12
                        if (x[188] <= 90.15999984741211) {
                            if (x[114] <= 13.849999904632568) {
                                if (x[115] <= -191.47999572753906) {
                                    if (x[32] <= -45.23499870300293) {
                                        if (x[10] <= -287.1549987792969) {
                                            if (x[5] <= -153.9949951171875) {
                                                votes[0] += 1;
                                            }

                                            else {
                                                votes[1] += 1;
                                            }
                                        }

                                        else {
                                            if (x[230] <= -45.31999969482422) {
                                                votes[0] += 1;
                                            }

                                            else {
                                                if (x[301] <= -232.97000885009766) {
                                                    votes[1] += 1;
                                                }

                                                else {
                                                    votes[0] += 1;
                                                }
                                            }
                                        }
                                    }

                                    else {
                                        if (x[298] <= -184.1449966430664) {
                                            votes[1] += 1;
                                        }

                                        else {
                                            votes[0] += 1;
                                        }
                                    }
                                }

                                else {
                                    if (x[223] <= -159.69499969482422) {
                                        if (x[323] <= 58.94999980926514) {
                                            votes[0] += 1;
                                        }

                                        else {
                                            votes[1] += 1;
                                        }
                                    }

                                    else {
                                        votes[0] += 1;
                                    }
                                }
                            }

                            else {
                                if (x[0] <= 13.59000015258789) {
                                    if (x[152] <= -101.43999862670898) {
                                        votes[0] += 1;
                                    }

                                    else {
                                        votes[1] += 1;
                                    }
                                }

                                else {
                                    votes[0] += 1;
                                }
                            }
                        }

                        else {
                            if (x[14] <= 90.06999969482422) {
                                votes[0] += 1;
                            }

                            else {
                                if (x[251] <= 86.98500061035156) {
                                    votes[0] += 1;
                                }

                                else {
                                    if (x[13] <= -639.4400024414062) {
                                        votes[0] += 1;
                                    }

                                    else {
                                        if (x[26] <= 133.33999633789062) {
                                            if (x[227] <= 149.87999725341797) {
                                                if (x[77] <= 85.52499771118164) {
                                                    votes[0] += 1;
                                                }

                                                else {
                                                    if (x[101] <= 144.91000366210938) {
                                                        votes[1] += 1;
                                                    }

                                                    else {
                                                        votes[0] += 1;
                                                    }
                                                }
                                            }

                                            else {
                                                votes[0] += 1;
                                            }
                                        }

                                        else {
                                            votes[1] += 1;
                                        }
                                    }
                                }
                            }
                        }

                        // tree #13
                        if (x[200] <= 91.72500228881836) {
                            if (x[108] <= -144.18499755859375) {
                                votes[1] += 1;
                            }

                            else {
                                if (x[54] <= 8.694999933242798) {
                                    if (x[238] <= -258.86500549316406) {
                                        if (x[50] <= -139.83499908447266) {
                                            votes[0] += 1;
                                        }

                                        else {
                                            if (x[79] <= -245.9949951171875) {
                                                votes[1] += 1;
                                            }

                                            else {
                                                votes[0] += 1;
                                            }
                                        }
                                    }

                                    else {
                                        if (x[55] <= -191.5) {
                                            if (x[248] <= 4.450000047683716) {
                                                votes[0] += 1;
                                            }

                                            else {
                                                votes[1] += 1;
                                            }
                                        }

                                        else {
                                            if (x[60] <= -100.30500030517578) {
                                                if (x[206] <= 53.64999961853027) {
                                                    votes[0] += 1;
                                                }

                                                else {
                                                    votes[1] += 1;
                                                }
                                            }

                                            else {
                                                votes[0] += 1;
                                            }
                                        }
                                    }
                                }

                                else {
                                    votes[0] += 1;
                                }
                            }
                        }

                        else {
                            if (x[17] <= 73.1400032043457) {
                                votes[0] += 1;
                            }

                            else {
                                if (x[326] <= 89.02000045776367) {
                                    if (x[328] <= -522.0650177001953) {
                                        votes[1] += 1;
                                    }

                                    else {
                                        votes[0] += 1;
                                    }
                                }

                                else {
                                    if (x[1] <= -641.8550109863281) {
                                        votes[0] += 1;
                                    }

                                    else {
                                        if (x[31] <= -235.1750030517578) {
                                            if (x[291] <= 314.0800018310547) {
                                                votes[1] += 1;
                                            }

                                            else {
                                                if (x[25] <= -570.8150024414062) {
                                                    votes[1] += 1;
                                                }

                                                else {
                                                    votes[0] += 1;
                                                }
                                            }
                                        }

                                        else {
                                            if (x[124] <= -206.61500549316406) {
                                                votes[0] += 1;
                                            }

                                            else {
                                                votes[1] += 1;
                                            }
                                        }
                                    }
                                }
                            }
                        }

                        // tree #14
                        if (x[167] <= 151.04000091552734) {
                            if (x[246] <= -31.229999542236328) {
                                if (x[25] <= -185.0999984741211) {
                                    if (x[103] <= -199.1199951171875) {
                                        if (x[286] <= -191.34000396728516) {
                                            votes[1] += 1;
                                        }

                                        else {
                                            votes[0] += 1;
                                        }
                                    }

                                    else {
                                        if (x[38] <= 2.615000009536743) {
                                            votes[0] += 1;
                                        }

                                        else {
                                            votes[1] += 1;
                                        }
                                    }
                                }

                                else {
                                    if (x[284] <= 83.56999969482422) {
                                        votes[0] += 1;
                                    }

                                    else {
                                        if (x[324] <= -96.72999954223633) {
                                            votes[0] += 1;
                                        }

                                        else {
                                            if (x[58] <= -161.68999481201172) {
                                                votes[0] += 1;
                                            }

                                            else {
                                                votes[1] += 1;
                                            }
                                        }
                                    }
                                }
                            }

                            else {
                                if (x[83] <= 87.08000183105469) {
                                    if (x[12] <= -21.475000381469727) {
                                        if (x[205] <= -198.6449966430664) {
                                            if (x[171] <= -48.92500114440918) {
                                                votes[0] += 1;
                                            }

                                            else {
                                                votes[1] += 1;
                                            }
                                        }

                                        else {
                                            votes[0] += 1;
                                        }
                                    }

                                    else {
                                        if (x[198] <= 11.414999961853027) {
                                            if (x[159] <= 32.670000076293945) {
                                                votes[0] += 1;
                                            }

                                            else {
                                                votes[1] += 1;
                                            }
                                        }

                                        else {
                                            votes[0] += 1;
                                        }
                                    }
                                }

                                else {
                                    if (x[245] <= 98.50500106811523) {
                                        if (x[258] <= 575.2999877929688) {
                                            if (x[235] <= -162.78500366210938) {
                                                votes[0] += 1;
                                            }

                                            else {
                                                votes[1] += 1;
                                            }
                                        }

                                        else {
                                            votes[1] += 1;
                                        }
                                    }

                                    else {
                                        if (x[98] <= 114.07500076293945) {
                                            if (x[5] <= 73.42499923706055) {
                                                votes[0] += 1;
                                            }

                                            else {
                                                votes[1] += 1;
                                            }
                                        }

                                        else {
                                            if (x[138] <= 25.545000076293945) {
                                                votes[1] += 1;
                                            }

                                            else {
                                                if (x[279] <= 318.9250030517578) {
                                                    if (x[36] <= 319.15000915527344) {
                                                        votes[0] += 1;
                                                    }

                                                    else {
                                                        votes[1] += 1;
                                                    }
                                                }

                                                else {
                                                    votes[1] += 1;
                                                }
                                            }
                                        }
                                    }
                                }
                            }
                        }

                        else {
                            if (x[68] <= 129.7750015258789) {
                                votes[0] += 1;
                            }

                            else {
                                if (x[236] <= 124.20999908447266) {
                                    votes[0] += 1;
                                }

                                else {
                                    votes[1] += 1;
                                }
                            }
                        }

                        // tree #15
                        if (x[200] <= 108.25) {
                            if (x[294] <= -53.46999931335449) {
                                if (x[268] <= -159.56999969482422) {
                                    if (x[61] <= -158.48500061035156) {
                                        if (x[9] <= -22.8149995803833) {
                                            if (x[357] <= -155.0) {
                                                votes[0] += 1;
                                            }

                                            else {
                                                if (x[358] <= -135.18000030517578) {
                                                    votes[1] += 1;
                                                }

                                                else {
                                                    votes[0] += 1;
                                                }
                                            }
                                        }

                                        else {
                                            votes[0] += 1;
                                        }
                                    }

                                    else {
                                        votes[0] += 1;
                                    }
                                }

                                else {
                                    if (x[320] <= 92.22999954223633) {
                                        votes[0] += 1;
                                    }

                                    else {
                                        votes[1] += 1;
                                    }
                                }
                            }

                            else {
                                if (x[141] <= 630.3450012207031) {
                                    if (x[186] <= 9.085000038146973) {
                                        if (x[22] <= -278.9949951171875) {
                                            if (x[256] <= -371.07000732421875) {
                                                votes[0] += 1;
                                            }

                                            else {
                                                votes[1] += 1;
                                            }
                                        }

                                        else {
                                            if (x[261] <= -44.739999771118164) {
                                                if (x[15] <= -75.44499778747559) {
                                                    votes[0] += 1;
                                                }

                                                else {
                                                    votes[1] += 1;
                                                }
                                            }

                                            else {
                                                votes[0] += 1;
                                            }
                                        }
                                    }

                                    else {
                                        if (x[15] <= 619.7649841308594) {
                                            votes[0] += 1;
                                        }

                                        else {
                                            votes[1] += 1;
                                        }
                                    }
                                }

                                else {
                                    votes[1] += 1;
                                }
                            }
                        }

                        else {
                            if (x[80] <= 88.08499908447266) {
                                votes[0] += 1;
                            }

                            else {
                                if (x[19] <= -221.36000061035156) {
                                    if (x[319] <= -201.125) {
                                        if (x[307] <= -205.36499786376953) {
                                            if (x[15] <= 281.59498596191406) {
                                                votes[1] += 1;
                                            }

                                            else {
                                                if (x[57] <= 357.3350067138672) {
                                                    votes[0] += 1;
                                                }

                                                else {
                                                    votes[1] += 1;
                                                }
                                            }
                                        }

                                        else {
                                            votes[0] += 1;
                                        }
                                    }

                                    else {
                                        votes[0] += 1;
                                    }
                                }

                                else {
                                    votes[0] += 1;
                                }
                            }
                        }

                        // tree #16
                        if (x[101] <= 98.59499740600586) {
                            if (x[225] <= -33.84000015258789) {
                                if (x[136] <= -202.94000244140625) {
                                    votes[1] += 1;
                                }

                                else {
                                    if (x[213] <= -67.2700023651123) {
                                        if (x[77] <= 90.47999954223633) {
                                            if (x[72] <= -146.94000244140625) {
                                                votes[1] += 1;
                                            }

                                            else {
                                                if (x[135] <= -149.05999755859375) {
                                                    votes[1] += 1;
                                                }

                                                else {
                                                    if (x[84] <= -33.0) {
                                                        votes[0] += 1;
                                                    }

                                                    else {
                                                        votes[1] += 1;
                                                    }
                                                }
                                            }
                                        }

                                        else {
                                            votes[1] += 1;
                                        }
                                    }

                                    else {
                                        if (x[346] <= -123.27000045776367) {
                                            votes[1] += 1;
                                        }

                                        else {
                                            votes[0] += 1;
                                        }
                                    }
                                }
                            }

                            else {
                                if (x[246] <= 31.574999809265137) {
                                    if (x[127] <= -302.17999267578125) {
                                        if (x[8] <= -161.48500061035156) {
                                            votes[0] += 1;
                                        }

                                        else {
                                            votes[1] += 1;
                                        }
                                    }

                                    else {
                                        if (x[171] <= -32.249999046325684) {
                                            if (x[232] <= -194.59500122070312) {
                                                votes[1] += 1;
                                            }

                                            else {
                                                votes[0] += 1;
                                            }
                                        }

                                        else {
                                            votes[0] += 1;
                                        }
                                    }
                                }

                                else {
                                    votes[0] += 1;
                                }
                            }
                        }

                        else {
                            if (x[260] <= 92.77000045776367) {
                                if (x[333] <= 562.6000061035156) {
                                    votes[0] += 1;
                                }

                                else {
                                    votes[1] += 1;
                                }
                            }

                            else {
                                if (x[8] <= 95.19999694824219) {
                                    if (x[273] <= 269.96500396728516) {
                                        votes[0] += 1;
                                    }

                                    else {
                                        votes[1] += 1;
                                    }
                                }

                                else {
                                    if (x[141] <= 503.2899932861328) {
                                        if (x[302] <= 114.21000289916992) {
                                            if (x[81] <= 286.8300018310547) {
                                                if (x[80] <= 127.78999710083008) {
                                                    votes[1] += 1;
                                                }

                                                else {
                                                    votes[0] += 1;
                                                }
                                            }

                                            else {
                                                votes[1] += 1;
                                            }
                                        }

                                        else {
                                            votes[1] += 1;
                                        }
                                    }

                                    else {
                                        if (x[345] <= 493.02001953125) {
                                            votes[0] += 1;
                                        }

                                        else {
                                            votes[1] += 1;
                                        }
                                    }
                                }
                            }
                        }

                        // tree #17
                        if (x[176] <= 87.19000244140625) {
                            if (x[168] <= -98.7599983215332) {
                                if (x[85] <= -199.09500122070312) {
                                    if (x[134] <= 0.45499999448657036) {
                                        votes[1] += 1;
                                    }

                                    else {
                                        votes[0] += 1;
                                    }
                                }

                                else {
                                    votes[0] += 1;
                                }
                            }

                            else {
                                if (x[264] <= 16.825000762939453) {
                                    if (x[1] <= -247.41500091552734) {
                                        if (x[47] <= -163.06500244140625) {
                                            votes[0] += 1;
                                        }

                                        else {
                                            if (x[268] <= -235.0300064086914) {
                                                if (x[80] <= -132.02499771118164) {
                                                    if (x[312] <= -22.344999313354492) {
                                                        votes[0] += 1;
                                                    }

                                                    else {
                                                        votes[1] += 1;
                                                    }
                                                }

                                                else {
                                                    votes[1] += 1;
                                                }
                                            }

                                            else {
                                                votes[0] += 1;
                                            }
                                        }
                                    }

                                    else {
                                        if (x[243] <= -1.0150000154972076) {
                                            if (x[20] <= 81.9749984741211) {
                                                if (x[121] <= -191.28499603271484) {
                                                    if (x[143] <= -14.880000114440918) {
                                                        votes[0] += 1;
                                                    }

                                                    else {
                                                        votes[1] += 1;
                                                    }
                                                }

                                                else {
                                                    votes[0] += 1;
                                                }
                                            }

                                            else {
                                                if (x[27] <= -95.42500305175781) {
                                                    votes[1] += 1;
                                                }

                                                else {
                                                    votes[0] += 1;
                                                }
                                            }
                                        }

                                        else {
                                            votes[1] += 1;
                                        }
                                    }
                                }

                                else {
                                    if (x[198] <= 11.09000015258789) {
                                        if (x[112] <= -280.7699966430664) {
                                            votes[1] += 1;
                                        }

                                        else {
                                            votes[0] += 1;
                                        }
                                    }

                                    else {
                                        votes[0] += 1;
                                    }
                                }
                            }
                        }

                        else {
                            if (x[14] <= 75.29000091552734) {
                                votes[0] += 1;
                            }

                            else {
                                if (x[253] <= -585.7149963378906) {
                                    if (x[163] <= -638.5050048828125) {
                                        if (x[129] <= 237.86499786376953) {
                                            votes[0] += 1;
                                        }

                                        else {
                                            votes[1] += 1;
                                        }
                                    }

                                    else {
                                        votes[1] += 1;
                                    }
                                }

                                else {
                                    if (x[15] <= 70.76499938964844) {
                                        if (x[248] <= 90.69499969482422) {
                                            votes[0] += 1;
                                        }

                                        else {
                                            votes[1] += 1;
                                        }
                                    }

                                    else {
                                        if (x[83] <= 156.86499786376953) {
                                            votes[0] += 1;
                                        }

                                        else {
                                            if (x[12] <= 75.90999984741211) {
                                                votes[0] += 1;
                                            }

                                            else {
                                                votes[1] += 1;
                                            }
                                        }
                                    }
                                }
                            }
                        }

                        // tree #18
                        if (x[74] <= 90.375) {
                            if (x[60] <= -98.6349983215332) {
                                if (x[247] <= -150.47000122070312) {
                                    votes[1] += 1;
                                }

                                else {
                                    votes[0] += 1;
                                }
                            }

                            else {
                                if (x[180] <= 9.925000190734863) {
                                    if (x[1] <= -247.41500091552734) {
                                        if (x[247] <= -214.85000610351562) {
                                            if (x[340] <= -310.3000030517578) {
                                                if (x[176] <= -111.80500030517578) {
                                                    votes[1] += 1;
                                                }

                                                else {
                                                    votes[0] += 1;
                                                }
                                            }

                                            else {
                                                votes[1] += 1;
                                            }
                                        }

                                        else {
                                            votes[0] += 1;
                                        }
                                    }

                                    else {
                                        if (x[314] <= 92.38000106811523) {
                                            if (x[133] <= -191.81500244140625) {
                                                if (x[176] <= 1.7249999940395355) {
                                                    votes[0] += 1;
                                                }

                                                else {
                                                    votes[1] += 1;
                                                }
                                            }

                                            else {
                                                votes[0] += 1;
                                            }
                                        }

                                        else {
                                            votes[1] += 1;
                                        }
                                    }
                                }

                                else {
                                    if (x[24] <= -14.065000057220459) {
                                        if (x[268] <= -255.95999908447266) {
                                            votes[1] += 1;
                                        }

                                        else {
                                            votes[0] += 1;
                                        }
                                    }

                                    else {
                                        votes[0] += 1;
                                    }
                                }
                            }
                        }

                        else {
                            if (x[314] <= 71.62500190734863) {
                                if (x[51] <= 595.4249877929688) {
                                    votes[0] += 1;
                                }

                                else {
                                    votes[1] += 1;
                                }
                            }

                            else {
                                if (x[117] <= 278.42999267578125) {
                                    if (x[173] <= 167.95999908447266) {
                                        votes[1] += 1;
                                    }

                                    else {
                                        if (x[8] <= 114.53499603271484) {
                                            votes[0] += 1;
