#pragma once
#include <cstdarg>
namespace Eloquent {
    namespace ML {
        namespace Port {
            class RandomForest {
                public:
                    /**
                    * Predict class for features vector
                    */
                    int predict(float *x) {
                        uint8_t votes[2] = { 0 };
                        // tree #1
                        if (x[57] <= 3.430000066757202) {
                            if (x[72] <= -39.01499938964844) {
                                if (x[208] <= -0.25499999057501554) {
                                    if (x[81] <= -72.81500244140625) {
                                        if (x[13] <= -11.009999752044678) {
                                            votes[0] += 1;
                                        }

                                        else {
                                            votes[1] += 1;
                                        }
                                    }

                                    else {
                                        if (x[140] <= 22.145000457763672) {
                                            votes[0] += 1;
                                        }

                                        else {
                                            votes[1] += 1;
                                        }
                                    }
                                }

                                else {
                                    if (x[201] <= -43.92500114440918) {
                                        votes[0] += 1;
                                    }

                                    else {
                                        votes[1] += 1;
                                    }
                                }
                            }

                            else {
                                if (x[132] <= 10.089999914169312) {
                                    if (x[160] <= -10.130000114440918) {
                                        if (x[169] <= -14.709999561309814) {
                                            votes[0] += 1;
                                        }

                                        else {
                                            if (x[161] <= 31.114999771118164) {
                                                votes[0] += 1;
                                            }

                                            else {
                                                votes[1] += 1;
                                            }
                                        }
                                    }

                                    else {
                                        votes[0] += 1;
                                    }
                                }

                                else {
                                    if (x[133] <= 31.95500087738037) {
                                        votes[1] += 1;
                                    }

                                    else {
                                        votes[0] += 1;
                                    }
                                }
                            }
                        }

                        else {
                            if (x[11] <= 94.55499649047852) {
                                if (x[146] <= 100.0) {
                                    if (x[72] <= 5.605000019073486) {
                                        votes[0] += 1;
                                    }

                                    else {
                                        if (x[40] <= 64.99500274658203) {
                                            votes[1] += 1;
                                        }

                                        else {
                                            votes[0] += 1;
                                        }
                                    }
                                }

                                else {
                                    votes[0] += 1;
                                }
                            }

                            else {
                                votes[0] += 1;
                            }
                        }

                        // tree #2
                        if (x[87] <= 5.269999980926514) {
                            if (x[69] <= -30.74000072479248) {
                                if (x[148] <= 9.225000381469727) {
                                    if (x[187] <= 2.1750000715255737) {
                                        if (x[128] <= 53.70000076293945) {
                                            votes[1] += 1;
                                        }

                                        else {
                                            votes[0] += 1;
                                        }
                                    }

                                    else {
                                        if (x[43] <= 1.4550000131130219) {
                                            votes[0] += 1;
                                        }

                                        else {
                                            votes[1] += 1;
                                        }
                                    }
                                }

                                else {
                                    votes[0] += 1;
                                }
                            }

                            else {
                                if (x[12] <= 7.949999809265137) {
                                    if (x[156] <= 35.890000343322754) {
                                        if (x[180] <= -34.135000228881836) {
                                            if (x[82] <= -22.059998989105225) {
                                                votes[1] += 1;
                                            }

                                            else {
                                                votes[0] += 1;
                                            }
                                        }

                                        else {
                                            votes[0] += 1;
                                        }
                                    }

                                    else {
                                        votes[1] += 1;
                                    }
                                }

                                else {
                                    votes[1] += 1;
                                }
                            }
                        }

                        else {
                            if (x[29] <= 87.55999755859375) {
                                if (x[187] <= 54.01499938964844) {
                                    if (x[155] <= 91.79999923706055) {
                                        votes[1] += 1;
                                    }

                                    else {
                                        votes[0] += 1;
                                    }
                                }

                                else {
                                    if (x[63] <= 65.43500089645386) {
                                        votes[0] += 1;
                                    }

                                    else {
                                        votes[1] += 1;
                                    }
                                }
                            }

                            else {
                                if (x[54] <= 34.084999084472656) {
                                    votes[1] += 1;
                                }

                                else {
                                    votes[0] += 1;
                                }
                            }
                        }

                        // tree #3
                        if (x[200] <= 23.364999771118164) {
                            votes[0] += 1;
                        }

                        else {
                            if (x[74] <= 82.43500137329102) {
                                if (x[48] <= 4.465000033378601) {
                                    if (x[90] <= -24.34000015258789) {
                                        if (x[32] <= 49.81500053405762) {
                                            if (x[118] <= 5.105000019073486) {
                                                votes[1] += 1;
                                            }

                                            else {
                                                votes[0] += 1;
                                            }
                                        }

                                        else {
                                            if (x[111] <= -76.77000045776367) {
                                                if (x[27] <= -67.3600025177002) {
                                                    votes[0] += 1;
                                                }

                                                else {
                                                    votes[1] += 1;
                                                }
                                            }

                                            else {
                                                votes[0] += 1;
                                            }
                                        }
                                    }

                                    else {
                                        if (x[132] <= -2.9499999284744263) {
                                            votes[0] += 1;
                                        }

                                        else {
                                            if (x[72] <= -11.980000257492065) {
                                                votes[1] += 1;
                                            }

                                            else {
                                                votes[0] += 1;
                                            }
                                        }
                                    }
                                }

                                else {
                                    if (x[34] <= 62.135000228881836) {
                                        votes[1] += 1;
                                    }

                                    else {
                                        votes[0] += 1;
                                    }
                                }
                            }

                            else {
                                if (x[195] <= 101.375) {
                                    if (x[151] <= -101.9000015258789) {
                                        votes[1] += 1;
                                    }

                                    else {
                                        if (x[3] <= 110.31000137329102) {
                                            votes[0] += 1;
                                        }

                                        else {
                                            votes[1] += 1;
                                        }
                                    }
                                }

                                else {
                                    votes[1] += 1;
                                }
                            }
                        }

                        // tree #4
                        if (x[198] <= 23.679999351501465) {
                            if (x[75] <= -32.385000228881836) {
                                if (x[100] <= 9.010000228881836) {
                                    if (x[200] <= 18.49000072479248) {
                                        votes[0] += 1;
                                    }

                                    else {
                                        if (x[11] <= 46.329999923706055) {
                                            votes[1] += 1;
                                        }

                                        else {
                                            if (x[184] <= -12.494999885559082) {
                                                votes[0] += 1;
                                            }

                                            else {
                                                votes[1] += 1;
                                            }
                                        }
                                    }
                                }

                                else {
                                    votes[0] += 1;
                                }
                            }

                            else {
                                if (x[33] <= 1.3749999701976776) {
                                    if (x[111] <= 28.809999465942383) {
                                        if (x[153] <= -32.38999938964844) {
                                            if (x[99] <= -25.9399995803833) {
                                                votes[0] += 1;
                                            }

                                            else {
                                                votes[1] += 1;
                                            }
                                        }

                                        else {
                                            votes[0] += 1;
                                        }
                                    }

                                    else {
                                        votes[1] += 1;
                                    }
                                }

                                else {
                                    if (x[125] <= 43.36000061035156) {
                                        votes[1] += 1;
                                    }

                                    else {
                                        if (x[130] <= -64.5049991607666) {
                                            votes[1] += 1;
                                        }

                                        else {
                                            votes[0] += 1;
                                        }
                                    }
                                }
                            }
                        }

                        else {
                            if (x[47] <= 83.09000015258789) {
                                if (x[169] <= 45.560001373291016) {
                                    if (x[119] <= 78.68000030517578) {
                                        votes[1] += 1;
                                    }

                                    else {
                                        if (x[68] <= 76.72000122070312) {
                                            votes[0] += 1;
                                        }

                                        else {
                                            votes[1] += 1;
                                        }
                                    }
                                }

                                else {
                                    if (x[33] <= 54.73499822616577) {
                                        votes[0] += 1;
                                    }

                                    else {
                                        votes[1] += 1;
                                    }
                                }
                            }

                            else {
                                if (x[24] <= 44.359999656677246) {
                                    votes[1] += 1;
                                }

                                else {
                                    if (x[105] <= 97.02999877929688) {
                                        votes[0] += 1;
                                    }

                                    else {
                                        if (x[0] <= 77.36999893188477) {
                                            votes[1] += 1;
                                        }

                                        else {
                                            votes[0] += 1;
                                        }
                                    }
                                }
                            }
                        }

                        // tree #5
                        if (x[161] <= 24.0649995803833) {
                            votes[0] += 1;
                        }

                        else {
                            if (x[74] <= 40.18499946594238) {
                                if (x[188] <= 30.670000076293945) {
                                    if (x[209] <= 27.244999885559082) {
                                        votes[1] += 1;
                                    }

                                    else {
                                        if (x[2] <= 35.61000061035156) {
                                            votes[0] += 1;
                                        }

                                        else {
                                            votes[1] += 1;
                                        }
                                    }
                                }

                                else {
                                    if (x[20] <= 46.15999984741211) {
                                        votes[1] += 1;
                                    }

                                    else {
                                        votes[0] += 1;
                                    }
                                }
                            }

                            else {
                                if (x[138] <= 92.80000305175781) {
                                    if (x[162] <= -76.23499870300293) {
                                        votes[1] += 1;
                                    }

                                    else {
                                        if (x[201] <= 95.53499984741211) {
                                            if (x[163] <= -85.86499786376953) {
                                                if (x[19] <= -85.23500061035156) {
                                                    votes[0] += 1;
                                                }

                                                else {
                                                    votes[1] += 1;
                                                }
                                            }

                                            else {
                                                if (x[36] <= 111.7599983215332) {
                                                    if (x[18] <= 96.69499969482422) {
                                                        if (x[61] <= -56.52499961853027) {
                                                            if (x[165] <= -28.690000534057617) {
                                                                votes[1] += 1;
                                                            }

                                                            else {
                                                                votes[0] += 1;
                                                            }
                                                        }

                                                        else {
                                                            if (x[168] <= 61.864999771118164) {
                                                                votes[0] += 1;
                                                            }

                                                            else {
                                                                votes[0] += 1;
                                                            }
                                                        }
                                                    }

                                                    else {
                                                        votes[1] += 1;
                                                    }
                                                }

                                                else {
                                                    votes[1] += 1;
                                                }
                                            }
                                        }

                                        else {
                                            votes[1] += 1;
                                        }
                                    }
                                }

                                else {
                                    if (x[137] <= 85.51499938964844) {
                                        votes[1] += 1;
                                    }

                                    else {
                                        votes[0] += 1;
                                    }
                                }
                            }
                        }

                        // tree #6
                        if (x[65] <= 18.9350004196167) {
                            votes[0] += 1;
                        }

                        else {
                            if (x[38] <= 82.78499984741211) {
                                if (x[3] <= 3.4200000315904617) {
                                    if (x[84] <= -30.045000076293945) {
                                        if (x[208] <= 2.615000009536743) {
                                            if (x[37] <= 11.654999732971191) {
                                                if (x[136] <= -34.25) {
                                                    if (x[37] <= -32.375) {
                                                        votes[1] += 1;
                                                    }

                                                    else {
                                                        votes[0] += 1;
                                                    }
                                                }

                                                else {
                                                    votes[1] += 1;
                                                }
                                            }

                                            else {
                                                votes[0] += 1;
                                            }
                                        }

                                        else {
                                            if (x[129] <= -89.5) {
                                                if (x[102] <= -105.73500061035156) {
                                                    votes[0] += 1;
                                                }

                                                else {
                                                    votes[1] += 1;
                                                }
                                            }

                                            else {
                                                votes[0] += 1;
                                            }
                                        }
                                    }

                                    else {
                                        if (x[144] <= 20.4399995803833) {
                                            votes[0] += 1;
                                        }

                                        else {
                                            votes[1] += 1;
                                        }
                                    }
                                }

                                else {
                                    if (x[58] <= 20.59499979019165) {
                                        votes[1] += 1;
                                    }

                                    else {
                                        if (x[0] <= 25.494999885559082) {
                                            votes[0] += 1;
                                        }

                                        else {
                                            votes[1] += 1;
                                        }
                                    }
                                }
                            }

                            else {
                                if (x[129] <= 105.94499969482422) {
                                    votes[0] += 1;
                                }

                                else {
                                    votes[1] += 1;
                                }
                            }
                        }

                        // tree #7
                        if (x[82] <= 6.049999952316284) {
                            if (x[113] <= 23.90000057220459) {
                                if (x[147] <= 5.130000114440918) {
                                    votes[0] += 1;
                                }

                                else {
                                    votes[1] += 1;
                                }
                            }

                            else {
                                if (x[164] <= 32.11000061035156) {
                                    if (x[124] <= -13.829999923706055) {
                                        if (x[124] <= -26.80500078201294) {
                                            votes[1] += 1;
                                        }

                                        else {
                                            votes[0] += 1;
                                        }
                                    }

                                    else {
                                        votes[1] += 1;
                                    }
                                }

                                else {
                                    if (x[64] <= -78.11499786376953) {
                                        votes[0] += 1;
                                    }

                                    else {
                                        if (x[137] <= 32.619998931884766) {
                                            if (x[153] <= 1.9450006484985352) {
                                                votes[0] += 1;
                                            }

                                            else {
                                                votes[1] += 1;
                                            }
                                        }

                                        else {
                                            if (x[134] <= 94.23500061035156) {
                                                if (x[198] <= 0.2949998378753662) {
                                                    if (x[194] <= 40.18000030517578) {
                                                        votes[1] += 1;
                                                    }

                                                    else {
                                                        if (x[29] <= 31.449999809265137) {
                                                            votes[1] += 1;
                                                        }

                                                        else {
                                                            if (x[69] <= -30.030000686645508) {
                                                                votes[0] += 1;
                                                            }

                                                            else {
                                                                votes[0] += 1;
                                                            }
                                                        }
                                                    }
                                                }

                                                else {
                                                    if (x[39] <= 82.79999923706055) {
                                                        votes[1] += 1;
                                                    }

                                                    else {
                                                        if (x[8] <= 76.25) {
                                                            votes[1] += 1;
                                                        }

                                                        else {
                                                            if (x[42] <= 106.72500228881836) {
                                                                votes[0] += 1;
                                                            }

                                                            else {
                                                                votes[1] += 1;
                                                            }
                                                        }
                                                    }
                                                }
                                            }

                                            else {
                                                votes[0] += 1;
                                            }
                                        }
                                    }
                                }
                            }
                        }

                        else {
                            if (x[66] <= 92.31000137329102) {
                                if (x[18] <= 17.889999866485596) {
                                    votes[0] += 1;
                                }

                                else {
                                    if (x[125] <= 91.39499855041504) {
                                        votes[1] += 1;
                                    }

                                    else {
                                        votes[0] += 1;
                                    }
                                }
                            }

                            else {
                                votes[1] += 1;
                            }
                        }

                        // tree #8
                        if (x[41] <= 82.65999984741211) {
                            if (x[147] <= 21.28499984741211) {
                                if (x[81] <= -32.40499973297119) {
                                    if (x[82] <= 8.634999990463257) {
                                        if (x[89] <= 20.405000686645508) {
                                            votes[0] += 1;
                                        }

                                        else {
                                            if (x[196] <= 12.369999885559082) {
                                                if (x[207] <= -95.59500122070312) {
                                                    votes[0] += 1;
                                                }

                                                else {
                                                    votes[1] += 1;
                                                }
                                            }

                                            else {
                                                votes[0] += 1;
                                            }
                                        }
                                    }

                                    else {
                                        votes[0] += 1;
                                    }
                                }

                                else {
                                    if (x[93] <= 4.555000066757202) {
                                        if (x[144] <= -48.08500099182129) {
                                            votes[1] += 1;
                                        }

                                        else {
                                            if (x[57] <= -15.919999599456787) {
                                                if (x[27] <= -17.755000114440918) {
                                                    votes[0] += 1;
                                                }

                                                else {
                                                    votes[1] += 1;
                                                }
                                            }

                                            else {
                                                votes[0] += 1;
                                            }
                                        }
                                    }

                                    else {
                                        if (x[32] <= 44.5) {
                                            votes[1] += 1;
                                        }

                                        else {
                                            votes[0] += 1;
                                        }
                                    }
                                }
                            }

                            else {
                                if (x[47] <= 77.98500061035156) {
                                    votes[1] += 1;
                                }

                                else {
                                    if (x[146] <= 79.88000106811523) {
                                        votes[1] += 1;
                                    }

                                    else {
                                        votes[0] += 1;
                                    }
                                }
                            }
                        }

                        else {
                            votes[0] += 1;
                        }

                        // tree #9
                        if (x[32] <= 19.630000114440918) {
                            votes[0] += 1;
                        }

                        else {
                            if (x[41] <= 41.42500114440918) {
                                if (x[194] <= 24.40499973297119) {
                                    if (x[140] <= 19.184999465942383) {
                                        votes[1] += 1;
                                    }

                                    else {
                                        votes[0] += 1;
                                    }
                                }

                                else {
                                    if (x[77] <= 30.795000076293945) {
                                        if (x[107] <= 31.155000686645508) {
                                            votes[1] += 1;
                                        }

                                        else {
                                            votes[0] += 1;
                                        }
                                    }

                                    else {
                                        votes[1] += 1;
                                    }
                                }
                            }

                            else {
                                if (x[66] <= 96.71500015258789) {
                                    if (x[195] <= 92.44999694824219) {
                                        if (x[195] <= -64.80500030517578) {
                                            votes[1] += 1;
                                        }

                                        else {
                                            if (x[108] <= 14.739999771118164) {
                                                if (x[152] <= 39.75) {
                                                    votes[1] += 1;
                                                }

                                                else {
                                                    votes[0] += 1;
                                                }
                                            }

                                            else {
                                                if (x[57] <= 62.635000228881836) {
                                                    if (x[110] <= 95.56000137329102) {
                                                        if (x[103] <= -98.35499954223633) {
                                                            votes[0] += 1;
                                                        }

                                                        else {
                                                            votes[1] += 1;
                                                        }
                                                    }

                                                    else {
                                                        votes[0] += 1;
                                                    }
                                                }

                                                else {
                                                    votes[0] += 1;
                                                }
                                            }
                                        }
                                    }

                                    else {
                                        if (x[155] <= 91.59000015258789) {
                                            votes[1] += 1;
                                        }

                                        else {
                                            votes[0] += 1;
                                        }
                                    }
                                }

                                else {
                                    votes[1] += 1;
                                }
                            }
                        }

                        // tree #10
                        if (x[158] <= 14.925000190734863) {
                            votes[0] += 1;
                        }

                        else {
                            if (x[26] <= 94.91999816894531) {
                                if (x[42] <= 1.620000034570694) {
                                    if (x[194] <= 40.275001525878906) {
                                        if (x[14] <= 19.739999771118164) {
                                            votes[0] += 1;
                                        }

                                        else {
                                            if (x[9] <= -18.989999771118164) {
                                                if (x[200] <= 18.410000801086426) {
                                                    votes[0] += 1;
                                                }

                                                else {
                                                    if (x[183] <= -86.18999862670898) {
                                                        votes[0] += 1;
                                                    }

                                                    else {
                                                        if (x[72] <= -19.510000228881836) {
                                                            votes[1] += 1;
                                                        }

                                                        else {
                                                            if (x[87] <= -15.110000133514404) {
                                                                votes[0] += 1;
                                                            }

                                                            else {
                                                                votes[1] += 1;
                                                            }
                                                        }
                                                    }
                                                }
                                            }

                                            else {
                                                if (x[51] <= -30.850000381469727) {
                                                    votes[1] += 1;
                                                }

                                                else {
                                                    votes[0] += 1;
                                                }
                                            }
                                        }
                                    }

                                    else {
                                        if (x[138] <= -83.875) {
                                            votes[1] += 1;
                                        }

                                        else {
                                            if (x[26] <= 33.45000076293945) {
                                                votes[1] += 1;
                                            }

                                            else {
                                                if (x[164] <= 67.03000259399414) {
                                                    votes[0] += 1;
                                                }

                                                else {
                                                    if (x[109] <= -56.38999938964844) {
                                                        votes[1] += 1;
                                                    }

                                                    else {
                                                        votes[0] += 1;
                                                    }
                                                }
                                            }
                                        }
                                    }
                                }

                                else {
                                    if (x[47] <= 77.98500061035156) {
                                        votes[1] += 1;
                                    }

                                    else {
                                        if (x[56] <= 76.71500015258789) {
                                            votes[0] += 1;
                                        }

                                        else {
                                            if (x[26] <= 85.35499954223633) {
                                                votes[0] += 1;
                                            }

                                            else {
                                                votes[1] += 1;
                                            }
                                        }
                                    }
                                }
                            }

                            else {
                                if (x[165] <= 114.69999694824219) {
                                    votes[0] += 1;
                                }

                                else {
                                    votes[1] += 1;
                                }
                            }
                        }

                        // tree #11
                        if (x[138] <= 97.08500289916992) {
                            if (x[65] <= 18.545000076293945) {
                                votes[0] += 1;
                            }

                            else {
                                if (x[161] <= 40.19499969482422) {
                                    if (x[207] <= -95.31000137329102) {
                                        votes[0] += 1;
                                    }

                                    else {
                                        if (x[38] <= 16.704999923706055) {
                                            votes[0] += 1;
                                        }

                                        else {
                                            if (x[157] <= -7.450000047683716) {
                                                if (x[131] <= 32.39000129699707) {
                                                    if (x[202] <= -8.864999771118164) {
                                                        if (x[37] <= -11.375) {
                                                            votes[0] += 1;
                                                        }

                                                        else {
                                                            votes[1] += 1;
                                                        }
                                                    }

                                                    else {
                                                        votes[0] += 1;
                                                    }
                                                }

                                                else {
                                                    if (x[99] <= -72.54999923706055) {
                                                        votes[0] += 1;
                                                    }

                                                    else {
                                                        votes[1] += 1;
                                                    }
                                                }
                                            }

                                            else {
                                                votes[1] += 1;
                                            }
                                        }
                                    }
                                }

                                else {
                                    if (x[201] <= 96.97999954223633) {
                                        if (x[88] <= -58.529998779296875) {
                                            if (x[197] <= 94.80999755859375) {
                                                if (x[27] <= -7.015000104904175) {
                                                    votes[0] += 1;
                                                }

                                                else {
                                                    if (x[28] <= -88.36999893188477) {
                                                        votes[0] += 1;
                                                    }

                                                    else {
                                                        votes[1] += 1;
                                                    }
                                                }
                                            }

                                            else {
                                                votes[0] += 1;
                                            }
                                        }

                                        else {
                                            if (x[131] <= 35.70000076293945) {
                                                votes[1] += 1;
                                            }

                                            else {
                                                if (x[6] <= 50.25) {
                                                    votes[0] += 1;
                                                }

                                                else {
                                                    if (x[63] <= 71.5) {
                                                        votes[1] += 1;
                                                    }

                                                    else {
                                                        votes[0] += 1;
                                                    }
                                                }
                                            }
                                        }
                                    }

                                    else {
                                        votes[1] += 1;
                                    }
                                }
                            }
                        }

                        else {
                            votes[1] += 1;
                        }

                        // tree #12
                        if (x[107] <= 96.96999740600586) {
                            if (x[39] <= 1.7949999570846558) {
                                if (x[155] <= 40.28999900817871) {
                                    if (x[146] <= 23.65499973297119) {
                                        if (x[147] <= 5.130000114440918) {
                                            votes[0] += 1;
                                        }

                                        else {
                                            votes[1] += 1;
                                        }
                                    }

                                    else {
                                        if (x[5] <= 19.699999809265137) {
                                            votes[0] += 1;
                                        }

                                        else {
                                            if (x[6] <= -18.869999885559082) {
                                                if (x[101] <= 48.5) {
                                                    votes[1] += 1;
                                                }

                                                else {
                                                    votes[0] += 1;
                                                }
                                            }

                                            else {
                                                if (x[181] <= -7.565000057220459) {
                                                    votes[0] += 1;
                                                }

                                                else {
                                                    votes[1] += 1;
                                                }
                                            }
                                        }
                                    }
                                }

                                else {
                                    if (x[9] <= 6.099999904632568) {
                                        if (x[19] <= -60.68000030517578) {
                                            if (x[170] <= 50.35500144958496) {
                                                votes[0] += 1;
                                            }

                                            else {
                                                votes[1] += 1;
                                            }
                                        }

                                        else {
                                            votes[0] += 1;
                                        }
                                    }

                                    else {
                                        votes[1] += 1;
                                    }
                                }
                            }

                            else {
                                if (x[142] <= -100.04000091552734) {
                                    votes[0] += 1;
                                }

                                else {
                                    if (x[14] <= 76.1500015258789) {
                                        votes[1] += 1;
                                    }

                                    else {
                                        if (x[62] <= 75.54499816894531) {
                                            votes[0] += 1;
                                        }

                                        else {
                                            if (x[180] <= 40.53000068664551) {
                                                if (x[35] <= 90.3499984741211) {
                                                    votes[1] += 1;
                                                }

                                                else {
                                                    votes[0] += 1;
                                                }
                                            }

                                            else {
                                                votes[1] += 1;
                                            }
                                        }
                                    }
                                }
                            }
                        }

                        else {
                            votes[0] += 1;
                        }

                        // tree #13
                        if (x[101] <= 95.3499984741211) {
                            if (x[20] <= 16.295000076293945) {
                                votes[0] += 1;
                            }

                            else {
                                if (x[14] <= 97.44500350952148) {
                                    if (x[57] <= 10.445000171661377) {
                                        if (x[78] <= -31.559999465942383) {
                                            if (x[91] <= -3.5649999380111694) {
                                                if (x[125] <= 53.06500053405762) {
                                                    votes[1] += 1;
                                                }

                                                else {
                                                    if (x[142] <= -17.394999980926514) {
                                                        votes[0] += 1;
                                                    }

                                                    else {
                                                        votes[1] += 1;
                                                    }
                                                }
                                            }

                                            else {
                                                if (x[194] <= 27.484999656677246) {
                                                    if (x[37] <= 12.634999752044678) {
                                                        if (x[130] <= -12.104999780654907) {
                                                            votes[0] += 1;
                                                        }

                                                        else {
                                                            votes[1] += 1;
                                                        }
                                                    }

                                                    else {
                                                        votes[0] += 1;
                                                    }
                                                }

                                                else {
                                                    votes[0] += 1;
                                                }
                                            }
                                        }

                                        else {
                                            if (x[113] <= 40.5049991607666) {
                                                if (x[39] <= -16.704999923706055) {
                                                    if (x[107] <= 33.30999946594238) {
                                                        if (x[53] <= 30.5) {
                                                            votes[1] += 1;
                                                        }

                                                        else {
                                                            votes[0] += 1;
                                                        }
                                                    }

                                                    else {
                                                        votes[1] += 1;
                                                    }
                                                }

                                                else {
                                                    votes[0] += 1;
                                                }
                                            }

                                            else {
                                                votes[0] += 1;
                                            }
                                        }
                                    }

                                    else {
                                        if (x[41] <= 77.59000015258789) {
                                            votes[1] += 1;
                                        }

                                        else {
                                            if (x[176] <= 88.7750015258789) {
                                                if (x[6] <= 90.375) {
                                                    votes[1] += 1;
                                                }

                                                else {
                                                    votes[0] += 1;
                                                }
                                            }

                                            else {
                                                votes[0] += 1;
                                            }
                                        }
                                    }
                                }

                                else {
                                    votes[0] += 1;
                                }
                            }
                        }

                        else {
                            votes[0] += 1;
                        }

                        // tree #14
                        if (x[12] <= 5.625) {
                            if (x[66] <= -34.63999938964844) {
                                if (x[139] <= 9.725000381469727) {
                                    if (x[77] <= 22.170000076293945) {
                                        votes[0] += 1;
                                    }

                                    else {
                                        if (x[5] <= 52.23500061035156) {
                                            votes[1] += 1;
                                        }

                                        else {
                                            votes[0] += 1;
                                        }
                                    }
                                }

                                else {
                                    votes[0] += 1;
                                }
                            }

                            else {
                                if (x[156] <= -31.920000076293945) {
                                    if (x[147] <= -37.8700008392334) {
                                        votes[0] += 1;
                                    }

                                    else {
                                        if (x[110] <= 15.84000015258789) {
                                            votes[0] += 1;
                                        }

                                        else {
                                            votes[1] += 1;
                                        }
                                    }
                                }

                                else {
                                    if (x[141] <= 28.25999927520752) {
                                        if (x[191] <= 56.48500061035156) {
                                            votes[0] += 1;
                                        }

                                        else {
                                            if (x[23] <= 36.96999931335449) {
                                                votes[1] += 1;
                                            }

                                            else {
                                                votes[0] += 1;
                                            }
                                        }
                                    }

                                    else {
                                        votes[1] += 1;
                                    }
                                }
                            }
                        }

                        else {
                            if (x[59] <= 94.8499984741211) {
                                if (x[208] <= -100.56000137329102) {
                                    votes[0] += 1;
                                }

                                else {
                                    if (x[122] <= 63.60000038146973) {
                                        votes[1] += 1;
                                    }

                                    else {
                                        if (x[182] <= 57.8700008392334) {
                                            votes[0] += 1;
                                        }

                                        else {
                                            if (x[113] <= 101.27999877929688) {
                                                if (x[72] <= 87.77000045776367) {
                                                    votes[1] += 1;
                                                }

                                                else {
                                                    if (x[177] <= 68.55500030517578) {
                                                        votes[0] += 1;
                                                    }

                                                    else {
                                                        votes[1] += 1;
                                                    }
                                                }
                                            }

                                            else {
                                                votes[0] += 1;
                                            }
                                        }
                                    }
                                }
                            }

                            else {
                                votes[0] += 1;
                            }
                        }

                        // tree #15
                        if (x[17] <= 19.199999809265137) {
                            votes[0] += 1;
                        }

                        else {
                            if (x[86] <= 54.19499969482422) {
                                if (x[190] <= -58.7450008392334) {
                                    votes[0] += 1;
                                }

                                else {
                                    if (x[91] <= 46.26499938964844) {
                                        if (x[162] <= -17.460000038146973) {
                                            if (x[159] <= -26.8100004196167) {
                                                if (x[170] <= 24.59000015258789) {
                                                    votes[0] += 1;
                                                }

                                                else {
                                                    if (x[195] <= -94.2599983215332) {
                                                        votes[0] += 1;
                                                    }

                                                    else {
                                                        if (x[85] <= 22.630000591278076) {
                                                            votes[1] += 1;
                                                        }

                                                        else {
                                                            votes[0] += 1;
                                                        }
                                                    }
                                                }
                                            }

                                            else {
                                                votes[0] += 1;
                                            }
                                        }

                                        else {
                                            votes[1] += 1;
                                        }
                                    }

                                    else {
                                        votes[0] += 1;
                                    }
                                }
                            }

                            else {
                                if (x[144] <= 22.899999618530273) {
                                    votes[0] += 1;
                                }

                                else {
                                    if (x[41] <= 94.95499801635742) {
                                        if (x[14] <= 97.98500061035156) {
                                            if (x[123] <= 78.26499938964844) {
                                                if (x[138] <= 70.14999771118164) {
                                                    votes[1] += 1;
                                                }

                                                else {
                                                    votes[0] += 1;
                                                }
                                            }

                                            else {
                                                votes[1] += 1;
                                            }
                                        }

                                        else {
                                            votes[0] += 1;
                                        }
                                    }

                                    else {
                                        votes[0] += 1;
                                    }
                                }
                            }
                        }

                        // tree #16
                        if (x[63] <= 8.954999923706055) {
                            if (x[139] <= 5.9700000286102295) {
                                if (x[48] <= -15.339999675750732) {
                                    if (x[161] <= 16.21999979019165) {
                                        votes[0] += 1;
                                    }

                                    else {
                                        if (x[84] <= -28.22000026702881) {
                                            if (x[201] <= -94.875) {
                                                votes[0] += 1;
                                            }

                                            else {
                                                votes[1] += 1;
                                            }
                                        }

                                        else {
                                            if (x[121] <= -13.539999961853027) {
                                                if (x[18] <= -36.540000915527344) {
                                                    votes[1] += 1;
                                                }

                                                else {
                                                    votes[0] += 1;
                                                }
                                            }

                                            else {
                                                if (x[160] <= -13.429999828338623) {
                                                    votes[0] += 1;
                                                }

                                                else {
                                                    votes[1] += 1;
                                                }
                                            }
                                        }
                                    }
                                }

                                else {
                                    votes[0] += 1;
                                }
                            }

                            else {
                                votes[0] += 1;
                            }
                        }

                        else {
                            if (x[2] <= 82.06999969482422) {
                                if (x[10] <= -54.885000228881836) {
                                    if (x[80] <= 75.56500244140625) {
                                        votes[0] += 1;
                                    }

                                    else {
                                        votes[1] += 1;
                                    }
                                }

                                else {
                                    votes[1] += 1;
                                }
                            }

                            else {
                                if (x[176] <= 88.56999969482422) {
                                    if (x[135] <= 41.44000053405762) {
                                        if (x[163] <= -64.4849967956543) {
                                            votes[1] += 1;
                                        }

                                        else {
                                            votes[0] += 1;
                                        }
                                    }

                                    else {
                                        votes[1] += 1;
                                    }
                                }

                                else {
                                    votes[0] += 1;
                                }
                            }
                        }

                        // tree #17
                        if (x[112] <= 16.71500015258789) {
                            if (x[197] <= 92.66999816894531) {
                                if (x[179] <= 23.800000190734863) {
                                    votes[0] += 1;
                                }

                                else {
                                    if (x[162] <= -2.069999933242798) {
                                        if (x[188] <= 40.5049991607666) {
                                            if (x[150] <= -22.295000076293945) {
                                                if (x[41] <= 18.710000038146973) {
                                                    votes[0] += 1;
                                                }

                                                else {
                                                    votes[1] += 1;
                                                }
                                            }

                                            else {
                                                if (x[176] <= 33.05500030517578) {
                                                    votes[0] += 1;
                                                }

                                                else {
                                                    if (x[52] <= -51.069997787475586) {
                                                        votes[0] += 1;
                                                    }

                                                    else {
                                                        votes[1] += 1;
                                                    }
                                                }
                                            }
                                        }

                                        else {
                                            if (x[127] <= -14.03499984741211) {
                                                if (x[39] <= 27.829999923706055) {
                                                    votes[0] += 1;
                                                }

                                                else {
                                                    votes[1] += 1;
                                                }
                                            }

                                            else {
                                                votes[1] += 1;
                                            }
                                        }
                                    }

                                    else {
                                        if (x[52] <= -88.73999786376953) {
                                            votes[0] += 1;
                                        }

                                        else {
                                            if (x[140] <= 112.66000366210938) {
                                                if (x[99] <= 86.64500045776367) {
                                                    votes[1] += 1;
                                                }

                                                else {
                                                    if (x[81] <= 109.90500259399414) {
                                                        if (x[138] <= 112.98999786376953) {
                                                            votes[0] += 1;
                                                        }

                                                        else {
                                                            votes[1] += 1;
                                                        }
                                                    }

                                                    else {
                                                        votes[1] += 1;
                                                    }
                                                }
                                            }

                                            else {
                                                votes[0] += 1;
                                            }
                                        }
                                    }
                                }
                            }

                            else {
                                votes[0] += 1;
                            }
                        }

                        else {
                            if (x[111] <= 19.929999828338623) {
                                votes[0] += 1;
                            }

                            else {
                                votes[1] += 1;
                            }
                        }

                        // tree #18
                        if (x[14] <= 20.945000648498535) {
                            votes[0] += 1;
                        }

                        else {
                            if (x[68] <= 82.25500106811523) {
                                if (x[6] <= 1.3600000143051147) {
                                    if (x[59] <= 46.64999961853027) {
                                        if (x[30] <= -15.329999923706055) {
                                            if (x[6] <= -68.02999877929688) {
                                                if (x[82] <= 0.039999961853027344) {
                                                    votes[0] += 1;
                                                }

                                                else {
                                                    if (x[118] <= 9.52999997138977) {
                                                        votes[1] += 1;
                                                    }

                                                    else {
                                                        votes[0] += 1;
                                                    }
                                                }
                                            }

                                            else {
                                                votes[1] += 1;
                                            }
                                        }

                                        else {
                                            if (x[60] <= 5.845000058412552) {
                                                votes[0] += 1;
                                            }

                                            else {
                                                votes[1] += 1;
                                            }
                                        }
                                    }

                                    else {
                                        if (x[87] <= -93.33499908447266) {
                                            votes[1] += 1;
                                        }

                                        else {
                                            votes[0] += 1;
                                        }
                                    }
                                }

                                else {
                                    votes[1] += 1;
                                }
                            }

                            else {
                                if (x[0] <= 111.5199966430664) {
                                    if (x[195] <= 105.78499984741211) {
                                        if (x[102] <= 95.95999908447266) {
                                            if (x[157] <= -101.3499984741211) {
                                                votes[1] += 1;
                                            }

                                            else {
                                                votes[0] += 1;
                                            }
                                        }

                                        else {
                                            if (x[75] <= 94.13000106811523) {
                                                votes[1] += 1;
                                            }

                                            else {
                                                votes[0] += 1;
                                            }
                                        }
                                    }

                                    else {
                                        votes[1] += 1;
                                    }
                                }

                                else {
                                    votes[1] += 1;
                                }
                            }
                        }

                        // tree #19
                        if (x[116] <= 16.230000019073486) {
                            votes[0] += 1;
                        }

                        else {
                            if (x[116] <= 40.07000160217285) {
                                if (x[168] <= -98.47500228881836) {
                                    votes[0] += 1;
                                }

                                else {
                                    if (x[84] <= -21.93000030517578) {
                                        votes[1] += 1;
                                    }

                                    else {
                                        if (x[111] <= -12.400000095367432) {
                                            if (x[18] <= -4.414999723434448) {
                                                votes[0] += 1;
                                            }

                                            else {
                                                votes[1] += 1;
                                            }
                                        }

                                        else {
                                            if (x[35] <= 38.23000144958496) {
                                                votes[1] += 1;
                                            }

                                            else {
                                                votes[0] += 1;
                                            }
                                        }
                                    }
                                }
                            }

                            else {
                                if (x[108] <= 19.489999771118164) {
                                    if (x[87] <= -25.31999969482422) {
                                        if (x[46] <= -40.204999923706055) {
                                            votes[1] += 1;
                                        }

                                        else {
                                            if (x[171] <= -84.39500045776367) {
                                                votes[1] += 1;
                                            }

                                            else {
                                                votes[0] += 1;
                                            }
                                        }
                                    }

                                    else {
                                        votes[0] += 1;
                                    }
                                }

                                else {
                                    if (x[38] <= 86.09499740600586) {
                                        votes[1] += 1;
                                    }

                                    else {
                                        if (x[0] <= 77.375) {
                                            if (x[8] <= 96.39500045776367) {
                                                if (x[94] <= -96.3499984741211) {
                                                    votes[0] += 1;
                                                }

                                                else {
                                                    votes[1] += 1;
                                                }
                                            }

                                            else {
                                                votes[0] += 1;
                                            }
                                        }

                                        else {
                                            votes[0] += 1;
                                        }
                                    }
                                }
                            }
                        }

                        // tree #20
                        if (x[176] <= 94.4749984741211) {
                            if (x[3] <= 4.450000047683716) {
                                if (x[12] <= -25.31999969482422) {
                                    if (x[38] <= 49.125) {
                                        if (x[5] <= 22.06999969482422) {
                                            votes[0] += 1;
                                        }

                                        else {
                                            if (x[133] <= 9.884999752044678) {
                                                votes[1] += 1;
                                            }

                                            else {
                                                votes[0] += 1;
                                            }
                                        }
                                    }

                                    else {
                                        if (x[138] <= -85.94499969482422) {
                                            votes[1] += 1;
                                        }

                                        else {
                                            votes[0] += 1;
                                        }
                                    }
                                }

                                else {
                                    if (x[204] <= -44.385000228881836) {
                                        votes[1] += 1;
                                    }

                                    else {
                                        if (x[208] <= 18.94499969482422) {
                                            votes[0] += 1;
                                        }

                                        else {
                                            if (x[110] <= 39.415000915527344) {
                                                votes[1] += 1;
                                            }

                                            else {
                                                votes[0] += 1;
                                            }
                                        }
                                    }
                                }
                            }

                            else {
                                if (x[199] <= -100.43500137329102) {
                                    votes[0] += 1;
                                }

                                else {
                                    if (x[41] <= 104.59499740600586) {
                                        if (x[107] <= 64.65999984741211) {
                                            votes[1] += 1;
                                        }

                                        else {
                                            if (x[177] <= -5.895000457763672) {
                                                votes[0] += 1;
                                            }

                                            else {
                                                if (x[42] <= 86.2599983215332) {
                                                    votes[1] += 1;
                                                }

                                                else {
                                                    if (x[17] <= 76.25500106811523) {
                                                        votes[1] += 1;
                                                    }

                                                    else {
                                                        votes[0] += 1;
                                                    }
                                                }
                                            }
                                        }
                                    }

                                    else {
                                        votes[0] += 1;
                                    }
                                }
                            }
                        }

                        else {
                            votes[0] += 1;
                        }

                        // tree #21
                        if (x[86] <= 95.15499877929688) {
                            if (x[5] <= 20.100000381469727) {
                                if (x[21] <= 4.525000169873238) {
                                    votes[0] += 1;
                                }

                                else {
                                    votes[1] += 1;
                                }
                            }

                            else {
                                if (x[207] <= 6.414999902248383) {
                                    if (x[2] <= 51.720001220703125) {
                                        if (x[135] <= -25.190000534057617) {
                                            if (x[35] <= 47.474998474121094) {
                                                votes[1] += 1;
                                            }

                                            else {
                                                if (x[121] <= -6.394999866373837) {
                                                    votes[1] += 1;
                                                }

                                                else {
                                                    votes[0] += 1;
                                                }
                                            }
                                        }

                                        else {
                                            if (x[9] <= 6.329999923706055) {
                                                if (x[38] <= 29.18000030517578) {
                                                    votes[1] += 1;
                                                }

                                                else {
                                                    if (x[3] <= -36.55999946594238) {
                                                        votes[1] += 1;
                                                    }

                                                    else {
                                                        votes[0] += 1;
                                                    }
                                                }
                                            }

                                            else {
                                                votes[1] += 1;
                                            }
                                        }
                                    }

                                    else {
                                        if (x[203] <= 29.989998817443848) {
                                            votes[1] += 1;
                                        }

                                        else {
                                            votes[0] += 1;
                                        }
                                    }
                                }

                                else {
                                    if (x[17] <= 76.88500213623047) {
                                        votes[1] += 1;
                                    }

                                    else {
                                        if (x[69] <= 86.60499954223633) {
                                            if (x[82] <= -88.5) {
                                                votes[0] += 1;
                                            }

                                            else {
                                                votes[1] += 1;
                                            }
                                        }

                                        else {
                                            votes[0] += 1;
                                        }
                                    }
                                }
                            }
                        }

                        else {
                            votes[0] += 1;
                        }

                        // tree #22
                        if (x[27] <= 4.0550001338124275) {
                            if (x[86] <= 40.704999923706055) {
                                if (x[113] <= 23.28499984741211) {
                                    votes[0] += 1;
                                }

                                else {
                                    if (x[116] <= 29.219999313354492) {
                                        votes[1] += 1;
                                    }

                                    else {
                                        if (x[72] <= -15.985000133514404) {
                                            if (x[134] <= 31.074999809265137) {
                                                votes[0] += 1;
                                            }

                                            else {
                                                if (x[179] <= 30.68000030517578) {
                                                    votes[0] += 1;
                                                }

                                                else {
                                                    votes[1] += 1;
                                                }
                                            }
                                        }

                                        else {
                                            votes[0] += 1;
                                        }
                                    }
                                }
                            }

                            else {
                                if (x[35] <= 34.97500038146973) {
                                    votes[1] += 1;
                                }

                                else {
                                    votes[0] += 1;
                                }
                            }
                        }

                        else {
                            if (x[32] <= 95.32499694824219) {
                                if (x[64] <= 17.294999599456787) {
                                    if (x[91] <= -95.06000137329102) {
                                        votes[0] += 1;
                                    }

                                    else {
                                        if (x[6] <= 90.375) {
                                            votes[1] += 1;
                                        }

                                        else {
                                            if (x[35] <= 77.93999862670898) {
                                                votes[1] += 1;
                                            }

                                            else {
                                                votes[0] += 1;
                                            }
                                        }
                                    }
                                }

                                else {
                                    if (x[126] <= 39.04500198364258) {
                                        votes[0] += 1;
                                    }

                                    else {
                                        votes[1] += 1;
                                    }
                                }
                            }

                            else {
                                votes[0] += 1;
                            }
                        }

                        // tree #23
                        if (x[75] <= 5.960000038146973) {
                            if (x[15] <= -33.1200008392334) {
                                if (x[190] <= 9.164999961853027) {
                                    if (x[198] <= -37.2450008392334) {
                                        if (x[183] <= -77.70999908447266) {
                                            if (x[174] <= -92.01499938964844) {
                                                votes[0] += 1;
                                            }

                                            else {
                                                votes[1] += 1;
                                            }
                                        }

                                        else {
                                            votes[0] += 1;
                                        }
                                    }

                                    else {
                                        votes[1] += 1;
                                    }
                                }

                                else {
                                    votes[0] += 1;
                                }
                            }

                            else {
                                if (x[201] <= -53.96000099182129) {
                                    votes[1] += 1;
                                }

                                else {
                                    if (x[66] <= -16.429999351501465) {
                                        if (x[3] <= -0.9649999141693115) {
                                            if (x[123] <= -7.254999876022339) {
                                                if (x[189] <= -37.650001525878906) {
                                                    if (x[31] <= -3.1700000762939453) {
                                                        votes[1] += 1;
                                                    }

                                                    else {
                                                        votes[0] += 1;
                                                    }
                                                }

                                                else {
                                                    votes[0] += 1;
                                                }
                                            }

                                            else {
                                                votes[1] += 1;
                                            }
                                        }

                                        else {
                                            votes[1] += 1;
                                        }
                                    }

                                    else {
                                        votes[0] += 1;
                                    }
                                }
                            }
                        }

                        else {
                            if (x[149] <= 88.17499923706055) {
                                if (x[13] <= 42.63999938964844) {
                                    if (x[185] <= 78.9000015258789) {
                                        votes[1] += 1;
                                    }

                                    else {
                                        if (x[47] <= 77.29000091552734) {
                                            votes[1] += 1;
                                        }

                                        else {
                                            votes[0] += 1;
                                        }
