#pragma once
#include <cstdarg>
namespace Eloquent {
    namespace ML {
        namespace Port {
            class RandomForest {
                public:
                    /**
                    * Predict class for features vector
                    */
                    int predict(float *x) {
                        uint8_t votes[2] = { 0 };
                        // tree #1
                        if (x[101] <= 184.71500396728516) {
                            if (x[42] <= -54.545000076293945) {
                                if (x[199] <= -188.76000213623047) {
                                    if (x[289] <= -191.3550033569336) {
                                        votes[1] += 1;
                                    }

                                    else {
                                        votes[0] += 1;
                                    }
                                }

                                else {
                                    if (x[347] <= 60.7599983215332) {
                                        votes[0] += 1;
                                    }

                                    else {
                                        if (x[444] <= -82.19499969482422) {
                                            if (x[46] <= -158.8449935913086) {
                                                votes[1] += 1;
                                            }

                                            else {
                                                votes[0] += 1;
                                            }
                                        }

                                        else {
                                            votes[1] += 1;
                                        }
                                    }
                                }
                            }

                            else {
                                if (x[9] <= 600.3049926757812) {
                                    if (x[182] <= 95.46500015258789) {
                                        if (x[126] <= 12.725000381469727) {
                                            if (x[52] <= -291.4599914550781) {
                                                votes[1] += 1;
                                            }

                                            else {
                                                if (x[82] <= -197.10000610351562) {
                                                    if (x[412] <= -179.6699981689453) {
                                                        votes[0] += 1;
                                                    }

                                                    else {
                                                        votes[1] += 1;
                                                    }
                                                }

                                                else {
                                                    votes[0] += 1;
                                                }
                                            }
                                        }

                                        else {
                                            if (x[33] <= -14.789999961853027) {
                                                if (x[385] <= -214.74500274658203) {
                                                    votes[1] += 1;
                                                }

                                                else {
                                                    votes[0] += 1;
                                                }
                                            }

                                            else {
                                                votes[0] += 1;
                                            }
                                        }
                                    }

                                    else {
                                        if (x[367] <= -600.1400146484375) {
                                            if (x[1] <= -632.4400024414062) {
                                                votes[0] += 1;
                                            }

                                            else {
                                                votes[1] += 1;
                                            }
                                        }

                                        else {
                                            if (x[20] <= 130.69499969482422) {
                                                votes[0] += 1;
                                            }

                                            else {
                                                if (x[269] <= 131.23999786376953) {
                                                    votes[0] += 1;
                                                }

                                                else {
                                                    votes[1] += 1;
                                                }
                                            }
                                        }
                                    }
                                }

                                else {
                                    votes[1] += 1;
                                }
                            }
                        }

                        else {
                            if (x[268] <= -244.24500274658203) {
                                votes[1] += 1;
                            }

                            else {
                                votes[0] += 1;
                            }
                        }

                        // tree #2
                        if (x[167] <= 91.4000015258789) {
                            if (x[66] <= -96.4749984741211) {
                                if (x[298] <= -158.48999786376953) {
                                    votes[1] += 1;
                                }

                                else {
                                    votes[0] += 1;
                                }
                            }

                            else {
                                if (x[108] <= 10.384999990463257) {
                                    if (x[289] <= -191.68999481201172) {
                                        if (x[255] <= 27.609999656677246) {
                                            if (x[43] <= -190.5250015258789) {
                                                if (x[449] <= -34.19999885559082) {
                                                    votes[1] += 1;
                                                }

                                                else {
                                                    votes[0] += 1;
                                                }
                                            }

                                            else {
                                                votes[0] += 1;
                                            }
                                        }

                                        else {
                                            if (x[138] <= 5.855000019073486) {
                                                votes[0] += 1;
                                            }

                                            else {
                                                votes[1] += 1;
                                            }
                                        }
                                    }

                                    else {
                                        votes[0] += 1;
                                    }
                                }

                                else {
                                    if (x[84] <= 20.719999313354492) {
                                        if (x[192] <= 66.65999984741211) {
                                            votes[0] += 1;
                                        }

                                        else {
                                            votes[1] += 1;
                                        }
                                    }

                                    else {
                                        votes[0] += 1;
                                    }
                                }
                            }
                        }

                        else {
                            if (x[419] <= 84.95000076293945) {
                                if (x[123] <= 467.0449981689453) {
                                    votes[0] += 1;
                                }

                                else {
                                    votes[1] += 1;
                                }
                            }

                            else {
                                if (x[438] <= 261.1499938964844) {
                                    if (x[272] <= 57.77999973297119) {
                                        votes[0] += 1;
                                    }

                                    else {
                                        if (x[16] <= -220.18999481201172) {
                                            votes[1] += 1;
                                        }

                                        else {
                                            if (x[233] <= 146.12000274658203) {
                                                votes[1] += 1;
                                            }

                                            else {
                                                votes[0] += 1;
                                            }
                                        }
                                    }
                                }

                                else {
                                    if (x[67] <= -582.0249938964844) {
                                        votes[1] += 1;
                                    }

                                    else {
                                        votes[0] += 1;
                                    }
                                }
                            }
                        }

                        // tree #3
                        if (x[3] <= -12.894999980926514) {
                            if (x[127] <= -184.1500015258789) {
                                if (x[244] <= -185.69000244140625) {
                                    votes[1] += 1;
                                }

                                else {
                                    votes[0] += 1;
                                }
                            }

                            else {
                                if (x[347] <= 86.36999893188477) {
                                    if (x[188] <= 92.76000213623047) {
                                        votes[0] += 1;
                                    }

                                    else {
                                        votes[1] += 1;
                                    }
                                }

                                else {
                                    if (x[157] <= -161.69000244140625) {
                                        votes[0] += 1;
                                    }

                                    else {
                                        votes[1] += 1;
                                    }
                                }
                            }
                        }

                        else {
                            if (x[347] <= 90.37000274658203) {
                                if (x[368] <= -187.5) {
                                    votes[1] += 1;
                                }

                                else {
                                    if (x[60] <= 603.3899841308594) {
                                        if (x[30] <= 23.90999984741211) {
                                            if (x[340] <= -284.5449981689453) {
                                                if (x[200] <= -127.20500183105469) {
                                                    votes[0] += 1;
                                                }

                                                else {
                                                    votes[1] += 1;
                                                }
                                            }

                                            else {
                                                votes[0] += 1;
                                            }
                                        }

                                        else {
                                            votes[0] += 1;
                                        }
                                    }

                                    else {
                                        votes[1] += 1;
                                    }
                                }
                            }

                            else {
                                if (x[11] <= 72.29000091552734) {
                                    if (x[154] <= -628.1000061035156) {
                                        votes[1] += 1;
                                    }

                                    else {
                                        votes[0] += 1;
                                    }
                                }

                                else {
                                    if (x[3] <= 263.4550094604492) {
                                        votes[1] += 1;
                                    }

                                    else {
                                        if (x[151] <= -561.6900024414062) {
                                            if (x[148] <= -621.0650024414062) {
                                                votes[0] += 1;
                                            }

                                            else {
                                                votes[1] += 1;
                                            }
                                        }

                                        else {
                                            votes[0] += 1;
                                        }
                                    }
                                }
                            }
                        }

                        // tree #4
                        if (x[266] <= 92.43500137329102) {
                            if (x[240] <= -130.4250030517578) {
                                votes[1] += 1;
                            }

                            else {
                                if (x[219] <= -19.454999923706055) {
                                    if (x[349] <= -190.4250030517578) {
                                        if (x[297] <= -71.31000137329102) {
                                            if (x[127] <= -261.77500915527344) {
                                                votes[1] += 1;
                                            }

                                            else {
                                                votes[0] += 1;
                                            }
                                        }

                                        else {
                                            votes[1] += 1;
                                        }
                                    }

                                    else {
                                        if (x[395] <= 90.85499954223633) {
                                            if (x[36] <= -101.00500106811523) {
                                                if (x[176] <= 31.74000072479248) {
                                                    votes[0] += 1;
                                                }

                                                else {
                                                    votes[1] += 1;
                                                }
                                            }

                                            else {
                                                votes[0] += 1;
                                            }
                                        }

                                        else {
                                            votes[1] += 1;
                                        }
                                    }
                                }

                                else {
                                    if (x[239] <= 89.8849983215332) {
                                        votes[0] += 1;
                                    }

                                    else {
                                        if (x[364] <= -456.61500549316406) {
                                            votes[1] += 1;
                                        }

                                        else {
                                            votes[0] += 1;
                                        }
                                    }
                                }
                            }
                        }

                        else {
                            if (x[170] <= 92.07999801635742) {
                                votes[0] += 1;
                            }

                            else {
                                if (x[407] <= 66.20000076293945) {
                                    if (x[216] <= 534.2250061035156) {
                                        votes[0] += 1;
                                    }

                                    else {
                                        votes[1] += 1;
                                    }
                                }

                                else {
                                    if (x[53] <= 147.0500030517578) {
                                        if (x[314] <= 141.7449951171875) {
                                            if (x[2] <= 141.53500366210938) {
                                                if (x[311] <= 137.86000061035156) {
                                                    votes[1] += 1;
                                                }

                                                else {
                                                    if (x[253] <= -235.91500091552734) {
                                                        votes[1] += 1;
                                                    }

                                                    else {
                                                        votes[0] += 1;
                                                    }
                                                }
                                            }

                                            else {
                                                votes[0] += 1;
                                            }
                                        }

                                        else {
                                            votes[0] += 1;
                                        }
                                    }

                                    else {
                                        votes[1] += 1;
                                    }
                                }
                            }
                        }

                        // tree #5
                        if (x[260] <= 87.42499923706055) {
                            if (x[258] <= -114.21999740600586) {
                                votes[1] += 1;
                            }

                            else {
                                if (x[171] <= 30.09000015258789) {
                                    if (x[331] <= -189.41500091552734) {
                                        if (x[252] <= 12.610000133514404) {
                                            if (x[227] <= -145.45999908447266) {
                                                votes[0] += 1;
                                            }

                                            else {
                                                votes[1] += 1;
                                            }
                                        }

                                        else {
                                            if (x[317] <= -111.38500213623047) {
                                                votes[0] += 1;
                                            }

                                            else {
                                                votes[1] += 1;
                                            }
                                        }
                                    }

                                    else {
                                        votes[0] += 1;
                                    }
                                }

                                else {
                                    if (x[72] <= 592.3199768066406) {
                                        if (x[15] <= -18.0649995803833) {
                                            if (x[6] <= -25.020000457763672) {
                                                votes[0] += 1;
                                            }

                                            else {
                                                votes[1] += 1;
                                            }
                                        }

                                        else {
                                            votes[0] += 1;
                                        }
                                    }

                                    else {
                                        votes[1] += 1;
                                    }
                                }
                            }
                        }

                        else {
                            if (x[107] <= 79.61000061035156) {
                                votes[0] += 1;
                            }

                            else {
                                if (x[350] <= 64.01000022888184) {
                                    votes[0] += 1;
                                }

                                else {
                                    if (x[8] <= 79.26000213623047) {
                                        if (x[391] <= -621.4600219726562) {
                                            votes[1] += 1;
                                        }

                                        else {
                                            votes[0] += 1;
                                        }
                                    }

                                    else {
                                        if (x[6] <= 262.4449996948242) {
                                            votes[1] += 1;
                                        }

                                        else {
                                            if (x[444] <= 528.0899963378906) {
                                                if (x[116] <= 181.875) {
                                                    votes[0] += 1;
                                                }

                                                else {
                                                    votes[1] += 1;
                                                }
                                            }

                                            else {
                                                votes[1] += 1;
                                            }
                                        }
                                    }
                                }
                            }
                        }

                        // tree #6
                        if (x[179] <= 170.65999603271484) {
                            if (x[153] <= -92.06999969482422) {
                                if (x[439] <= -158.75) {
                                    if (x[360] <= -157.51500701904297) {
                                        votes[0] += 1;
                                    }

                                    else {
                                        votes[1] += 1;
                                    }
                                }

                                else {
                                    votes[0] += 1;
                                }
                            }

                            else {
                                if (x[57] <= 626.0549926757812) {
                                    if (x[271] <= -257.8699951171875) {
                                        if (x[219] <= 9.289999961853027) {
                                            if (x[115] <= -260.0) {
                                                if (x[188] <= -148.7199935913086) {
                                                    votes[0] += 1;
                                                }

                                                else {
                                                    votes[1] += 1;
                                                }
                                            }

                                            else {
                                                votes[0] += 1;
                                            }
                                        }

                                        else {
                                            if (x[134] <= 104.52000045776367) {
                                                if (x[102] <= 28.32499885559082) {
                                                    if (x[357] <= 11.760000228881836) {
                                                        votes[1] += 1;
                                                    }

                                                    else {
                                                        votes[0] += 1;
                                                    }
                                                }

                                                else {
                                                    votes[0] += 1;
                                                }
                                            }

                                            else {
                                                if (x[19] <= -589.5499877929688) {
                                                    if (x[380] <= 31.26500129699707) {
                                                        votes[0] += 1;
                                                    }

                                                    else {
                                                        votes[1] += 1;
                                                    }
                                                }

                                                else {
                                                    votes[0] += 1;
                                                }
                                            }
                                        }
                                    }

                                    else {
                                        if (x[306] <= -56.39500045776367) {
                                            if (x[208] <= -158.625) {
                                                votes[1] += 1;
                                            }

                                            else {
                                                votes[0] += 1;
                                            }
                                        }

                                        else {
                                            votes[0] += 1;
                                        }
                                    }
                                }

                                else {
                                    votes[1] += 1;
                                }
                            }
                        }

                        else {
                            if (x[308] <= 129.0250015258789) {
                                votes[0] += 1;
                            }

                            else {
                                votes[1] += 1;
                            }
                        }

                        // tree #7
                        if (x[233] <= 93.70999908447266) {
                            if (x[87] <= -28.960000038146973) {
                                if (x[304] <= -197.05999755859375) {
                                    if (x[43] <= -174.63500213623047) {
                                        votes[1] += 1;
                                    }

                                    else {
                                        votes[0] += 1;
                                    }
                                }

                                else {
                                    if (x[398] <= 10.734999895095825) {
                                        votes[0] += 1;
                                    }

                                    else {
                                        if (x[261] <= -78.15499877929688) {
                                            if (x[310] <= -160.73500061035156) {
                                                votes[1] += 1;
                                            }

                                            else {
                                                votes[0] += 1;
                                            }
                                        }

                                        else {
                                            votes[1] += 1;
                                        }
                                    }
                                }
                            }

                            else {
                                if (x[177] <= -33.03999900817871) {
                                    if (x[51] <= -6.5450000166893005) {
                                        votes[1] += 1;
                                    }

                                    else {
                                        votes[0] += 1;
                                    }
                                }

                                else {
                                    if (x[255] <= 22.920000076293945) {
                                        if (x[390] <= 40.209999084472656) {
                                            if (x[67] <= -365.26499938964844) {
                                                votes[1] += 1;
                                            }

                                            else {
                                                if (x[339] <= 64.55000114440918) {
                                                    votes[0] += 1;
                                                }

                                                else {
                                                    votes[1] += 1;
                                                }
                                            }
                                        }

                                        else {
                                            votes[1] += 1;
                                        }
                                    }

                                    else {
                                        votes[0] += 1;
                                    }
                                }
                            }
                        }

                        else {
                            if (x[44] <= 80.93500137329102) {
                                if (x[169] <= -613.5799865722656) {
                                    votes[1] += 1;
                                }

                                else {
                                    votes[0] += 1;
                                }
                            }

                            else {
                                if (x[428] <= 83.97999954223633) {
                                    if (x[246] <= 59.41000175476074) {
                                        votes[1] += 1;
                                    }

                                    else {
                                        if (x[268] <= -633.7099914550781) {
                                            votes[1] += 1;
                                        }

                                        else {
                                            votes[0] += 1;
                                        }
                                    }
                                }

                                else {
                                    if (x[9] <= 493.11000061035156) {
                                        votes[1] += 1;
                                    }

                                    else {
                                        if (x[344] <= 180.24500274658203) {
                                            votes[1] += 1;
                                        }

                                        else {
                                            votes[0] += 1;
                                        }
                                    }
                                }
                            }
                        }

                        // tree #8
                        if (x[122] <= 75.01499938964844) {
                            if (x[6] <= -13.190000057220459) {
                                if (x[136] <= -194.44499969482422) {
                                    if (x[319] <= -181.01499938964844) {
                                        if (x[351] <= 53.204999923706055) {
                                            votes[1] += 1;
                                        }

                                        else {
                                            votes[0] += 1;
                                        }
                                    }

                                    else {
                                        votes[0] += 1;
                                    }
                                }

                                else {
                                    if (x[244] <= -188.45999908447266) {
                                        if (x[338] <= 4.700000047683716) {
                                            votes[0] += 1;
                                        }

                                        else {
                                            votes[1] += 1;
                                        }
                                    }

                                    else {
                                        votes[0] += 1;
                                    }
                                }
                            }

                            else {
                                if (x[72] <= 6.105000019073486) {
                                    if (x[368] <= -80.93500137329102) {
                                        votes[1] += 1;
                                    }

                                    else {
                                        votes[0] += 1;
                                    }
                                }

                                else {
                                    if (x[189] <= 13.424999713897705) {
                                        if (x[102] <= 68.22999954223633) {
                                            votes[0] += 1;
                                        }

                                        else {
                                            votes[1] += 1;
                                        }
                                    }

                                    else {
                                        votes[0] += 1;
                                    }
                                }
                            }
                        }

                        else {
                            if (x[332] <= 89.76000213623047) {
                                if (x[202] <= -162.10499572753906) {
                                    if (x[399] <= 564.6150207519531) {
                                        votes[0] += 1;
                                    }

                                    else {
                                        votes[1] += 1;
                                    }
                                }

                                else {
                                    votes[1] += 1;
                                }
                            }

                            else {
                                if (x[431] <= 67.34499931335449) {
                                    votes[0] += 1;
                                }

                                else {
                                    if (x[62] <= 82.25500106811523) {
                                        votes[0] += 1;
                                    }

                                    else {
                                        if (x[23] <= 131.1500015258789) {
                                            if (x[260] <= 127.53999710083008) {
                                                votes[1] += 1;
                                            }

                                            else {
                                                votes[0] += 1;
                                            }
                                        }

                                        else {
                                            votes[1] += 1;
                                        }
                                    }
                                }
                            }
                        }

                        // tree #9
                        if (x[197] <= 182.875) {
                            if (x[141] <= -98.56500244140625) {
                                if (x[62] <= -27.354999542236328) {
                                    votes[0] += 1;
                                }

                                else {
                                    votes[1] += 1;
                                }
                            }

                            else {
                                if (x[372] <= 569.5199890136719) {
                                    if (x[108] <= 27.975000381469727) {
                                        if (x[67] <= -159.31999969482422) {
                                            if (x[328] <= -189.79000091552734) {
                                                if (x[302] <= -122.42499923706055) {
                                                    if (x[249] <= 9.845000267028809) {
                                                        votes[1] += 1;
                                                    }

                                                    else {
                                                        votes[0] += 1;
                                                    }
                                                }

                                                else {
                                                    if (x[147] <= -65.75) {
                                                        if (x[352] <= -262.364990234375) {
                                                            votes[0] += 1;
                                                        }

                                                        else {
                                                            votes[1] += 1;
                                                        }
                                                    }

                                                    else {
                                                        votes[1] += 1;
                                                    }
                                                }
                                            }

                                            else {
                                                if (x[212] <= 92.36999893188477) {
                                                    votes[0] += 1;
                                                }

                                                else {
                                                    votes[1] += 1;
                                                }
                                            }
                                        }

                                        else {
                                            votes[0] += 1;
                                        }
                                    }

                                    else {
                                        if (x[184] <= -633.3800048828125) {
                                            if (x[207] <= 238.81999969482422) {
                                                votes[1] += 1;
                                            }

                                            else {
                                                votes[0] += 1;
                                            }
                                        }

                                        else {
                                            if (x[200] <= 141.25499725341797) {
                                                if (x[213] <= 9.525000095367432) {
                                                    if (x[351] <= -11.014999806880951) {
                                                        votes[0] += 1;
                                                    }

                                                    else {
                                                        votes[1] += 1;
                                                    }
                                                }

                                                else {
                                                    votes[0] += 1;
                                                }
                                            }

                                            else {
                                                if (x[149] <= 140.9550018310547) {
                                                    votes[1] += 1;
                                                }

                                                else {
                                                    if (x[315] <= 522.5399932861328) {
                                                        votes[0] += 1;
                                                    }

                                                    else {
                                                        votes[1] += 1;
                                                    }
                                                }
                                            }
                                        }
                                    }
                                }

                                else {
                                    if (x[11] <= 65.55999946594238) {
                                        votes[0] += 1;
                                    }

                                    else {
                                        votes[1] += 1;
                                    }
                                }
                            }
                        }

                        else {
                            if (x[59] <= 214.84500122070312) {
                                if (x[46] <= -239.77999877929688) {
                                    votes[1] += 1;
                                }

                                else {
                                    votes[0] += 1;
                                }
                            }

                            else {
                                votes[0] += 1;
                            }
                        }

                        // tree #10
                        if (x[200] <= 90.20000076293945) {
                            if (x[156] <= -100.52999877929688) {
                                votes[1] += 1;
                            }

                            else {
                                if (x[165] <= 10.289999961853027) {
                                    if (x[241] <= -264.44000244140625) {
                                        votes[1] += 1;
                                    }

                                    else {
                                        if (x[190] <= -191.4499969482422) {
                                            if (x[269] <= -15.920001029968262) {
                                                votes[0] += 1;
                                            }

                                            else {
                                                votes[1] += 1;
                                            }
                                        }

                                        else {
                                            if (x[144] <= -96.75) {
                                                votes[1] += 1;
                                            }

                                            else {
                                                votes[0] += 1;
                                            }
                                        }
                                    }
                                }

                                else {
                                    votes[0] += 1;
                                }
                            }
                        }

                        else {
                            if (x[44] <= 75.22000122070312) {
                                votes[0] += 1;
                            }

                            else {
                                if (x[419] <= 68.47999954223633) {
                                    if (x[71] <= 104.95000076293945) {
                                        votes[1] += 1;
                                    }

                                    else {
                                        votes[0] += 1;
                                    }
                                }

                                else {
                                    if (x[432] <= 258.9599914550781) {
                                        if (x[116] <= 88.3849983215332) {
                                            votes[0] += 1;
                                        }

                                        else {
                                            if (x[437] <= 201.02999877929688) {
                                                votes[1] += 1;
                                            }

                                            else {
                                                if (x[309] <= 58.53999900817871) {
                                                    votes[0] += 1;
                                                }

                                                else {
                                                    votes[1] += 1;
                                                }
                                            }
                                        }
                                    }

                                    else {
                                        if (x[147] <= 507.6300048828125) {
                                            if (x[68] <= 158.2750015258789) {
                                                votes[0] += 1;
                                            }

                                            else {
                                                votes[1] += 1;
                                            }
                                        }

                                        else {
                                            votes[1] += 1;
                                        }
                                    }
                                }
                            }
                        }

                        // tree #11
                        if (x[356] <= 86.36499786376953) {
                            if (x[156] <= -112.03000259399414) {
                                if (x[270] <= -105.06499862670898) {
                                    votes[1] += 1;
                                }

                                else {
                                    votes[0] += 1;
                                }
                            }

                            else {
                                if (x[57] <= 8.53000020980835) {
                                    if (x[148] <= -262.49000549316406) {
                                        if (x[305] <= -165.55999755859375) {
                                            votes[0] += 1;
                                        }

                                        else {
                                            votes[1] += 1;
                                        }
                                    }

                                    else {
                                        if (x[175] <= -184.11499786376953) {
                                            if (x[29] <= 9.179999828338623) {
                                                votes[0] += 1;
                                            }

                                            else {
                                                votes[1] += 1;
                                            }
                                        }

                                        else {
                                            if (x[230] <= 90.0199966430664) {
                                                votes[0] += 1;
                                            }

                                            else {
                                                votes[1] += 1;
                                            }
                                        }
                                    }
                                }

                                else {
                                    if (x[9] <= 636.8999938964844) {
                                        if (x[111] <= -0.5300000011920929) {
                                            if (x[198] <= -10.540000438690186) {
                                                votes[0] += 1;
                                            }

                                            else {
                                                votes[1] += 1;
                                            }
                                        }

                                        else {
                                            if (x[162] <= 6.184999942779541) {
                                                if (x[248] <= -82.2400016784668) {
                                                    votes[1] += 1;
                                                }

                                                else {
                                                    votes[0] += 1;
                                                }
                                            }

                                            else {
                                                votes[0] += 1;
                                            }
                                        }
                                    }

                                    else {
                                        votes[1] += 1;
                                    }
                                }
                            }
                        }

                        else {
                            if (x[77] <= 85.52499771118164) {
                                if (x[223] <= -159.7750015258789) {
                                    votes[0] += 1;
                                }

                                else {
                                    votes[1] += 1;
                                }
                            }

                            else {
                                if (x[24] <= 255.58499908447266) {
                                    votes[1] += 1;
                                }

                                else {
                                    if (x[429] <= 354.43499755859375) {
                                        votes[0] += 1;
                                    }

                                    else {
                                        votes[1] += 1;
                                    }
                                }
                            }
                        }

                        // tree #12
                        if (x[227] <= 173.6750030517578) {
                            if (x[192] <= -115.90999984741211) {
                                if (x[90] <= -66.25500106811523) {
                                    votes[1] += 1;
                                }

                                else {
                                    votes[0] += 1;
                                }
                            }

                            else {
                                if (x[93] <= 27.335000038146973) {
                                    if (x[172] <= -207.34500122070312) {
                                        if (x[18] <= -12.349999904632568) {
                                            votes[1] += 1;
                                        }

                                        else {
                                            if (x[320] <= -117.05499649047852) {
                                                votes[0] += 1;
                                            }

                                            else {
                                                if (x[441] <= -41.82499837875366) {
                                                    votes[0] += 1;
                                                }

                                                else {
                                                    votes[1] += 1;
                                                }
                                            }
                                        }
                                    }

                                    else {
                                        if (x[413] <= 86.56000137329102) {
                                            if (x[187] <= -187.70999908447266) {
                                                if (x[355] <= -182.9800033569336) {
                                                    if (x[425] <= -87.30499839782715) {
                                                        votes[0] += 1;
                                                    }

                                                    else {
                                                        votes[1] += 1;
                                                    }
                                                }

                                                else {
                                                    votes[0] += 1;
                                                }
                                            }

                                            else {
                                                votes[0] += 1;
                                            }
                                        }

                                        else {
                                            votes[1] += 1;
                                        }
                                    }
                                }

                                else {
                                    if (x[257] <= 105.88999938964844) {
                                        if (x[255] <= 633.4149780273438) {
                                            if (x[0] <= 16.855000495910645) {
                                                if (x[99] <= 64.97999954223633) {
                                                    votes[0] += 1;
                                                }

                                                else {
                                                    votes[1] += 1;
                                                }
                                            }

                                            else {
                                                votes[0] += 1;
                                            }
                                        }

                                        else {
                                            votes[1] += 1;
                                        }
                                    }

                                    else {
                                        if (x[298] <= -591.3600158691406) {
                                            votes[1] += 1;
                                        }

                                        else {
                                            votes[0] += 1;
                                        }
                                    }
                                }
                            }
                        }

                        else {
                            if (x[14] <= 118.56000137329102) {
                                votes[0] += 1;
                            }

                            else {
                                votes[1] += 1;
                            }
                        }

                        // tree #13
                        if (x[182] <= 91.5999984741211) {
                            if (x[30] <= -32.954999923706055) {
                                if (x[244] <= -160.5800018310547) {
                                    if (x[249] <= -0.5049999952316284) {
                                        if (x[7] <= -149.41500091552734) {
                                            votes[1] += 1;
                                        }

                                        else {
                                            votes[0] += 1;
                                        }
                                    }

                                    else {
                                        votes[0] += 1;
                                    }
                                }

                                else {
                                    if (x[311] <= 91.06499862670898) {
                                        if (x[194] <= 83.73500061035156) {
                                            votes[0] += 1;
                                        }

                                        else {
                                            if (x[295] <= -160.66500091552734) {
                                                votes[1] += 1;
                                            }

                                            else {
                                                votes[0] += 1;
                                            }
                                        }
                                    }

                                    else {
                                        votes[1] += 1;
                                    }
                                }
                            }

                            else {
                                if (x[0] <= -25.394999504089355) {
                                    if (x[230] <= -122.55499649047852) {
                                        votes[1] += 1;
                                    }

                                    else {
                                        votes[0] += 1;
                                    }
                                }

                                else {
                                    if (x[200] <= -82.2599983215332) {
                                        if (x[222] <= 7.265000104904175) {
                                            if (x[354] <= 1.9949999749660492) {
                                                votes[0] += 1;
                                            }

                                            else {
                                                votes[1] += 1;
                                            }
                                        }

                                        else {
                                            if (x[294] <= 9.579999685287476) {
                                                if (x[61] <= -268.24500274658203) {
                                                    votes[1] += 1;
                                                }

                                                else {
                                                    votes[0] += 1;
                                                }
                                            }

                                            else {
                                                votes[0] += 1;
                                            }
                                        }
                                    }

                                    else {
                                        votes[0] += 1;
                                    }
                                }
                            }
                        }

                        else {
                            if (x[254] <= 194.50499725341797) {
                                if (x[200] <= 100.90999984741211) {
                                    votes[1] += 1;
                                }

                                else {
                                    if (x[308] <= 113.89500045776367) {
                                        if (x[42] <= 606.1199951171875) {
                                            if (x[331] <= -637.5750122070312) {
                                                votes[1] += 1;
                                            }

                                            else {
                                                votes[0] += 1;
                                            }
                                        }

                                        else {
                                            votes[1] += 1;
                                        }
                                    }

                                    else {
                                        if (x[11] <= 128.74500274658203) {
                                            if (x[166] <= -592.0950012207031) {
                                                votes[1] += 1;
                                            }

                                            else {
                                                votes[0] += 1;
                                            }
                                        }

                                        else {
                                            votes[1] += 1;
                                        }
                                    }
                                }
                            }

                            else {
                                votes[1] += 1;
                            }
                        }

                        // tree #14
                        if (x[251] <= 166.81000518798828) {
                            if (x[78] <= -96.01499938964844) {
                                if (x[313] <= -144.49500274658203) {
                                    votes[1] += 1;
                                }

                                else {
                                    votes[0] += 1;
                                }
                            }

                            else {
                                if (x[180] <= 26.630000114440918) {
                                    if (x[361] <= -190.94499969482422) {
                                        if (x[266] <= -160.0999984741211) {
                                            votes[0] += 1;
                                        }

                                        else {
                                            if (x[357] <= -63.55000114440918) {
                                                if (x[155] <= -11.550000429153442) {
                                                    votes[0] += 1;
                                                }

                                                else {
                                                    votes[1] += 1;
                                                }
                                            }

                                            else {
                                                if (x[396] <= 53.03000068664551) {
                                                    votes[1] += 1;
                                                }

                                                else {
                                                    if (x[337] <= -276.6750030517578) {
                                                        votes[0] += 1;
                                                    }

                                                    else {
                                                        votes[1] += 1;
                                                    }
                                                }
                                            }
                                        }
                                    }

                                    else {
                                        if (x[77] <= 82.09500122070312) {
                                            votes[0] += 1;
                                        }

                                        else {
                                            if (x[238] <= -160.06999969482422) {
                                                votes[1] += 1;
                                            }

                                            else {
                                                votes[0] += 1;
                                            }
                                        }
                                    }
                                }

                                else {
                                    if (x[339] <= 609.3099975585938) {
                                        if (x[51] <= 605.1600036621094) {
                                            if (x[301] <= -635.1650085449219) {
                                                if (x[224] <= 76.11499977111816) {
                                                    votes[0] += 1;
                                                }

                                                else {
                                                    votes[1] += 1;
                                                }
                                            }

                                            else {
                                                if (x[105] <= 27.21500015258789) {
                                                    if (x[162] <= 47.244998931884766) {
                                                        votes[0] += 1;
                                                    }

                                                    else {
                                                        votes[1] += 1;
                                                    }
                                                }

                                                else {
                                                    votes[0] += 1;
                                                }
                                            }
                                        }

                                        else {
                                            votes[1] += 1;
                                        }
                                    }

                                    else {
                                        votes[1] += 1;
                                    }
                                }
                            }
                        }

                        else {
                            if (x[86] <= 161.625) {
                                votes[0] += 1;
                            }

                            else {
                                votes[1] += 1;
                            }
                        }

                        // tree #15
                        if (x[374] <= 89.28999710083008) {
                            if (x[72] <= -22.77500057220459) {
                                if (x[154] <= -199.09000396728516) {
                                    if (x[286] <= -190.17000579833984) {
                                        votes[1] += 1;
                                    }

                                    else {
                                        votes[0] += 1;
                                    }
                                }

                                else {
                                    if (x[41] <= 81.08500289916992) {
                                        if (x[73] <= -191.99500274658203) {
                                            if (x[422] <= -6.100000381469727) {
                                                votes[0] += 1;
                                            }

                                            else {
                                                votes[1] += 1;
                                            }
                                        }

                                        else {
                                            votes[0] += 1;
                                        }
                                    }

                                    else {
                                        if (x[214] <= -159.33499908447266) {
                                            votes[0] += 1;
                                        }

                                        else {
                                            votes[1] += 1;
                                        }
                                    }
                                }
                            }

                            else {
                                if (x[198] <= 9.889999866485596) {
                                    if (x[433] <= -288.01499938964844) {
                                        votes[1] += 1;
                                    }

                                    else {
                                        if (x[186] <= 5.400000095367432) {
                                            if (x[195] <= -48.33500099182129) {
                                                if (x[282] <= -64.80500030517578) {
                                                    votes[0] += 1;
                                                }

                                                else {
                                                    votes[1] += 1;
                                                }
                                            }

                                            else {
                                                votes[0] += 1;
                                            }
                                        }

                                        else {
                                            votes[1] += 1;
                                        }
                                    }
                                }

                                else {
                                    if (x[57] <= 600.1199951171875) {
                                        if (x[36] <= -15.16499948501587) {
                                            if (x[376] <= -278.7850036621094) {
                                                votes[1] += 1;
                                            }

                                            else {
                                                votes[0] += 1;
                                            }
                                        }

                                        else {
                                            votes[0] += 1;
                                        }
                                    }

                                    else {
                                        votes[1] += 1;
                                    }
                                }
                            }
                        }

                        else {
                            if (x[68] <= 84.71500015258789) {
                                if (x[196] <= -630.39501953125) {
                                    votes[1] += 1;
                                }

                                else {
                                    votes[0] += 1;
                                }
                            }

                            else {
                                if (x[74] <= 158.84500122070312) {
                                    if (x[359] <= 102.39999771118164) {
                                        votes[1] += 1;
                                    }

                                    else {
                                        if (x[27] <= 254.02000427246094) {
                                            if (x[64] <= -237.63999938964844) {
                                                votes[1] += 1;
                                            }

                                            else {
                                                if (x[33] <= 31.75) {
                                                    votes[1] += 1;
                                                }

                                                else {
                                                    votes[0] += 1;
                                                }
                                            }
                                        }

                                        else {
                                            votes[0] += 1;
                                        }
                                    }
                                }

                                else {
                                    votes[1] += 1;
                                }
                            }
                        }

                        // tree #16
                        if (x[24] <= -31.989999771118164) {
                            if (x[256] <= -154.11500549316406) {
                                if (x[199] <= -200.48999786376953) {
                                    if (x[212] <= -132.75500106811523) {
                                        votes[0] += 1;
                                    }

                                    else {
                                        votes[1] += 1;
                                    }
                                }

                                else {
                                    if (x[245] <= -2.559999942779541) {
                                        votes[0] += 1;
                                    }

                                    else {
                                        if (x[353] <= 89.41499710083008) {
                                            if (x[427] <= -97.44499969482422) {
                                                if (x[270] <= -90.16500091552734) {
                                                    if (x[323] <= 41.604999244213104) {
                                                        votes[1] += 1;
                                                    }

                                                    else {
                                                        votes[0] += 1;
                                                    }
                                                }

                                                else {
                                                    votes[1] += 1;
                                                }
                                            }

                                            else {
                                                votes[0] += 1;
                                            }
                                        }

                                        else {
                                            votes[0] += 1;
                                        }
                                    }
                                }
                            }

                            else {
                                votes[0] += 1;
                            }
                        }

                        else {
                            if (x[125] <= 89.70500183105469) {
                                if (x[102] <= -19.399999618530273) {
                                    if (x[29] <= -67.08500099182129) {
                                        votes[1] += 1;
                                    }

                                    else {
                                        votes[0] += 1;
                                    }
                                }

                                else {
                                    if (x[291] <= 30.464999198913574) {
                                        if (x[396] <= 42.10000038146973) {
                                            if (x[78] <= 67.3849983215332) {
                                                votes[0] += 1;
                                            }

                                            else {
                                                votes[1] += 1;
                                            }
                                        }

                                        else {
                                            votes[1] += 1;
                                        }
                                    }

                                    else {
                                        votes[0] += 1;
                                    }
                                }
                            }

                            else {
                                if (x[68] <= 163.66000366210938) {
                                    if (x[280] <= -594.5599975585938) {
                                        if (x[67] <= -635.6900024414062) {
                                            votes[0] += 1;
                                        }

                                        else {
                                            if (x[83] <= 145.4550018310547) {
                                                votes[1] += 1;
                                            }

                                            else {
                                                votes[0] += 1;
                                            }
                                        }
                                    }

                                    else {
                                        if (x[378] <= 44.40999984741211) {
                                            votes[1] += 1;
                                        }

                                        else {
                                            votes[0] += 1;
                                        }
                                    }
                                }

                                else {
                                    if (x[410] <= 55.345001220703125) {
                                        votes[0] += 1;
                                    }

                                    else {
                                        votes[1] += 1;
                                    }
                                }
                            }
                        }

                        // tree #17
                        if (x[201] <= -102.87999725341797) {
                            if (x[356] <= -42.9900016784668) {
                                votes[0] += 1;
                            }

                            else {
                                votes[1] += 1;
                            }
                        }

                        else {
                            if (x[107] <= 187.05500030517578) {
                                if (x[368] <= 89.18999862670898) {
                                    if (x[66] <= -23.959999084472656) {
                                        if (x[202] <= -263.44000244140625) {
                                            votes[1] += 1;
                                        }

                                        else {
                                            if (x[224] <= 93.7750015258789) {
                                                if (x[169] <= -185.3000030517578) {
                                                    if (x[257] <= -17.47499942779541) {
                                                        votes[0] += 1;
                                                    }

                                                    else {
                                                        votes[1] += 1;
                                                    }
                                                }

                                                else {
                                                    votes[0] += 1;
                                                }
                                            }

                                            else {
                                                votes[1] += 1;
                                            }
                                        }
                                    }

                                    else {
                                        if (x[9] <= 636.8999938964844) {
                                            if (x[386] <= -198.5) {
                                                if (x[397] <= -306.3450012207031) {
                                                    votes[1] += 1;
                                                }

                                                else {
                                                    votes[0] += 1;
                                                }
                                            }

                                            else {
                                                if (x[74] <= -82.73999786376953) {
                                                    if (x[0] <= -22.84999942779541) {
                                                        votes[1] += 1;
                                                    }

                                                    else {
                                                        if (x[95] <= -82.29000091552734) {
                                                            if (x[200] <= -86.375) {
                                                                votes[0] += 1;
                                                            }

                                                            else {
                                                                votes[0] += 1;
                                                            }
                                                        }

                                                        else {
                                                            votes[1] += 1;
                                                        }
                                                    }
                                                }

                                                else {
                                                    votes[0] += 1;
                                                }
                                            }
                                        }

                                        else {
                                            votes[1] += 1;
                                        }
                                    }
                                }

                                else {
                                    if (x[295] <= -597.864990234375) {
                                        if (x[101] <= 53.92500114440918) {
                                            votes[0] += 1;
                                        }

                                        else {
                                            if (x[52] <= -637.0299987792969) {
                                                votes[0] += 1;
                                            }

                                            else {
                                                votes[1] += 1;
                                            }
                                        }
                                    }

                                    else {
                                        if (x[331] <= -158.27999877929688) {
                                            if (x[104] <= 167.2249984741211) {
                                                if (x[17] <= 130.4600067138672) {
                                                    votes[0] += 1;
                                                }

                                                else {
                                                    if (x[59] <= 142.37000274658203) {
                                                        votes[1] += 1;
                                                    }

                                                    else {
                                                        votes[0] += 1;
                                                    }
                                                }
                                            }

                                            else {
                                                votes[1] += 1;
                                            }
                                        }

                                        else {
                                            votes[1] += 1;
                                        }
                                    }
                                }
                            }

                            else {
                                votes[1] += 1;
                            }
                        }

                        // tree #18
                        if (x[188] <= 171.9800033569336) {
                            if (x[144] <= -16.645000457763672) {
                                if (x[316] <= -187.81999969482422) {
                                    if (x[67] <= -177.3499984741211) {
                                        if (x[387] <= 54.834999084472656) {
                                            if (x[447] <= -132.2249984741211) {
                                                if (x[173] <= -35.920000076293945) {
                                                    votes[0] += 1;
                                                }

                                                else {
                                                    votes[1] += 1;
                                                }
                                            }

                                            else {
                                                votes[1] += 1;
                                            }
                                        }

                                        else {
                                            votes[0] += 1;
                                        }
                                    }

                                    else {
                                        votes[0] += 1;
                                    }
                                }

                                else {
                                    if (x[113] <= 89.45999908447266) {
                                        if (x[440] <= 89.17000198364258) {
                                            if (x[401] <= 90.19499969482422) {
                                                votes[0] += 1;
                                            }

                                            else {
                                                votes[1] += 1;
                                            }
                                        }

                                        else {
                                            if (x[374] <= 86.97999954223633) {
                                                votes[1] += 1;
                                            }

                                            else {
                                                votes[0] += 1;
                                            }
                                        }
                                    }

                                    else {
                                        votes[1] += 1;
                                    }
                                }
                            }

                            else {
                                if (x[176] <= 91.67499923706055) {
                                    if (x[111] <= 27.800000190734863) {
                                        if (x[28] <= -304.3400115966797) {
                                            votes[1] += 1;
                                        }

                                        else {
                                            votes[0] += 1;
                                        }
                                    }

                                    else {
                                        if (x[195] <= 16.700000286102295) {
                                            if (x[114] <= 61.85500144958496) {
                                                votes[0] += 1;
                                            }

                                            else {
                                                votes[1] += 1;
                                            }
                                        }

                                        else {
                                            votes[0] += 1;
                                        }
                                    }
                                }

                                else {
                                    if (x[187] <= -591.875) {
                                        if (x[379] <= -646.0799865722656) {
                                            votes[0] += 1;
                                        }

                                        else {
                                            votes[1] += 1;
                                        }
                                    }

                                    else {
                                        if (x[391] <= -239.69000244140625) {
                                            votes[0] += 1;
                                        }

                                        else {
                                            if (x[251] <= 102.32999801635742) {
                                                votes[0] += 1;
                                            }

                                            else {
                                                votes[1] += 1;
                                            }
                                        }
                                    }
                                }
                            }
                        }

                        else {
                            if (x[80] <= 163.86000061035156) {
                                votes[0] += 1;
                            }

                            else {
                                if (x[74] <= 216.4499969482422) {
                                    votes[1] += 1;
                                }

                                else {
                                    votes[0] += 1;
                                }
                            }
                        }

                        // tree #19
                        if (x[179] <= 94.21999740600586) {
                            if (x[249] <= -98.31000137329102) {
                                if (x[415] <= -130.84499740600586) {
                                    if (x[61] <= -165.5800018310547) {
                                        votes[1] += 1;
                                    }

                                    else {
                                        votes[0] += 1;
                                    }
                                }

                                else {
                                    votes[0] += 1;
                                }
                            }

                            else {
                                if (x[248] <= -126.1349983215332) {
                                    if (x[33] <= -7.495000004768372) {
                                        if (x[196] <= -291.5500030517578) {
                                            votes[1] += 1;
                                        }

                                        else {
                                            votes[0] += 1;
                                        }
                                    }

                                    else {
                                        if (x[40] <= -370.0799865722656) {
                                            votes[1] += 1;
                                        }

                                        else {
                                            votes[0] += 1;
                                        }
                                    }
                                }

                                else {
                                    if (x[180] <= -121.42499923706055) {
                                        votes[1] += 1;
                                    }

                                    else {
                                        if (x[270] <= 36.739999771118164) {
                                            if (x[313] <= -265.4700012207031) {
                                                if (x[95] <= -105.43499755859375) {
                                                    votes[0] += 1;
                                                }

                                                else {
                                                    votes[1] += 1;
                                                }
                                            }

                                            else {
                                                if (x[229] <= -191.56499481201172) {
                                                    if (x[39] <= -59.10499954223633) {
                                                        votes[1] += 1;
                                                    }

                                                    else {
                                                        votes[0] += 1;
                                                    }
                                                }

                                                else {
                                                    votes[0] += 1;
                                                }
                                            }
                                        }

                                        else {
                                            votes[0] += 1;
                                        }
                                    }
                                }
                            }
                        }

                        else {
                            if (x[64] <= -582.1000061035156) {
                                if (x[46] <= -633.7749938964844) {
                                    if (x[237] <= 262.9800033569336) {
                                        votes[0] += 1;
                                    }

                                    else {
                                        votes[1] += 1;
                                    }
                                }

                                else {
                                    if (x[425] <= -43.704999923706055) {
                                        votes[0] += 1;
                                    }

                                    else {
                                        if (x[128] <= 74.39500045776367) {
                                            votes[0] += 1;
                                        }

                                        else {
                                            if (x[328] <= -578.7950134277344) {
                                                votes[1] += 1;
                                            }

                                            else {
                                                votes[0] += 1;
                                            }
                                        }
                                    }
                                }
                            }

                            else {
                                if (x[233] <= 194.82500457763672) {
                                    if (x[78] <= 27.149999618530273) {
                                        votes[1] += 1;
                                    }

                                    else {
                                        if (x[38] <= 165.38499450683594) {
                                            votes[0] += 1;
                                        }

                                        else {
                                            if (x[381] <= 327.2999954223633) {
                                                votes[0] += 1;
                                            }

                                            else {
                                                votes[1] += 1;
                                            }
                                        }
                                    }
                                }

                                else {
                                    votes[1] += 1;
                                }
                            }
                        }

                        // tree #20
                        if (x[224] <= 173.87000274658203) {
                            if (x[279] <= -102.28499984741211) {
                                if (x[381] <= -156.4749984741211) {
                                    votes[0] += 1;
                                }

                                else {
                                    votes[1] += 1;
                                }
                            }

                            else {
                                if (x[113] <= 83.51499938964844) {
                                    if (x[27] <= 22.09500026702881) {
